-0.6374771
-0.66508049
0.0078445133
-0.10072664
0.03428648
0.28461596
-0.050486792
0.28445503
-0.23927605
0.70483732
-0.36907661
0.34918055
-0.043886334
-0.14406157
0.26286685
0.40722027
-0.12792219
0.10814824
0.53041625
-0.12598898
0.076010078
-0.128747
-0.18196268
-0.025728617
-0.36663058
-0.035962142
-0.063361764
-0.23815288
-0.27859944
-0.1581848
-0.076109774
-0.032036707
0.010765259
-0.29466397
-0.23828864
-0.1784181
-0.24094222
-0.44759449
-0.41762388
-0.069281898
-0.010119317
0.16273946
-0.055930018
0.42533559
-0.28938031
0.10615189
0.040990595
-0.38603467
0.55622917
-0.10668287
0.12882864
0.12711592
-0.071619883
-0.14621244
-0.33186731
0.049561504
0.44627693
-0.074743286
0.15194386
0.19182223
0.073215328
-0.17612682
-0.13238287
-0.34567556
-0.22573695
-0.28424031
0.096554086
0.14223522
-0.26628527
0.23520073
-0.15797979
-0.10607716
-0.041685101
-0.072588161
-0.27594855
-0.081553899
-0.21015804
-0.13055375
-0.74839532
-0.47341534
-0.26623598
0.16022904
-0.044570342
-0.15956619
0.24198134
-0.043794241
0.043933604
0.043229174
-0.27345258
0.11746407
0.18313543
0.55287766
0.36395317
0.22264242
-0.32267568
-0.24913697
0.34909362
-0.064359531
-0.15768883
0.021411816
-0.079362348
-0.59831429
-0.14489779
-0.11133076
-0.31205317
-0.3406646
-0.28938353
-0.098677255
0.051605649
-0.032764405
0.180989
-0.31542036
-0.21348283
-0.1444654
0.12114467
0.01796215
-0.10892618
-0.23754445
-0.16024852
-0.17580037
-0.32837522
-0.29249421
-0.29095781
-0.6224249
-0.30655181
-0.8981179
0.45733312
0.17735535
-0.14817128
0.045345582
0.11295443
0.082686186
0.063211992
0.21953204
0.33293304
0.24322231
-0.37447971
0.011849063
-0.13077843
0.44964105
-0.010609027
0.31442088
-0.73196667
-0.16429852
0.071895935
-0.18668684
-0.16614439
-0.17380936
-0.085572682
-0.079165407
-0.19440544
0.044672385
-0.23317261
-0.095001698
-0.2219862
-0.48583794
-0.10783728
-0.14818433
0.15471053
0.11527146
-0.54795623
-0.27562451
-0.09580493
-0.31482962
-0.37036556
-0.24661022
0.13456793
0.44126412
0.50419748
0.13545793
0.28937793
0.40020195
-0.028993689
-0.32521322
0.61099559
-0.33665511
0.3843466
-0.053687546
0.32772106
0.17506783
0.094127953
0.10084523
0.077075124
-0.18712081
-0.10699704
0.061536867
0.043766543
-0.18437028
-0.081175379
-0.22020148
0.12881105
0.11667145
-0.32772624
-0.30920243
-0.13715668
0.1184544
-0.11898071
-0.35912275
-0.033849478
-0.040283028
-0.097468644
-0.62223738
-0.17832838
-0.40294462
-0.5147748
7.3242962e-05
-0.71841109
0.97047675
-0.72443902
-0.19038633
0.71383166
0.40068486
-0.11274595
-0.25094157
-0.099470235
0.026202107
0.030790748
0.7603215
-0.41397378
0.017706316
0.61351281
-0.33513379
-0.24194676
0.06957981
-0.17556255
-0.17768593
-0.18928833
0.055149678
0.13074344
-0.48212653
-0.00040491024
0.01105925
-0.0041177627
-0.20532182
-0.56253457
-0.29224014
0.08835727
-0.20185065
-0.39483094
-0.076339386
0.12593722
0.062021259
-0.74698663
-0.36668837
-0.46171889
0.36791345
-0.83544445
-1.259699
0.14575361
0.12128249
0.50678045
0.40598547
-1.0399981
-0.63630944
0.41625375
-0.76850605
0.15190902
-0.66878039
-0.02222641
-0.132746
-0.43364668
1.0016936
0.17287122
-0.40557349
-0.11054029
0.077179402
0.073823281
0.078149132
0.19745766
0.17869626
-0.50626087
-0.10943626
0.29812223
0.19236596
0.098104253
-0.24952739
-0.33730036
0.16084407
-0.77089477
-0.092918172
-0.74069476
0.34084991
0.19742075
-0.91171283
-0.0010911685
-0.25079852
-1.2854838
1.3468913
-0.4887951
-0.095789537
-1.0025452
-0.99550247
1.02995
-0.034787342
0.28113908
-0.78577626
0.60530281
0.59772247
0.4861469
0.50474888
-0.60756493
0.49325755
-1.2574116
-0.06621246
0.67131573
0.8325817
0.2656396
-0.15093346
-0.10086954
0.16260864
-0.22731793
-0.10824647
-0.020182716
-0.15673383
-0.18761103
0.094417833
-0.32725897
-0.095574647
-0.14292797
-0.20155348
-0.18614648
-0.14757049
-0.58152694
-0.0951299
-0.70068562
0.020233924
-0.15673339
0.0051431479
1.0935938
0.55917597
0.74719298
-0.13391119
-0.44825056
1.252912
0.56309628
0.26583335
-0.20752281
0.013617369
0.059262123
-1.0388466
0.18004094
-0.7385006
-0.099383071
-0.84948814
0.19215731
0.43762949
0.62188935
0.51384032
-0.20626818
0.024493923
0.033074703
0.42877501
0.070173502
-0.092590965
0.031154811
0.083725154
0.013934167
-0.37138894
-0.39149395
0.30780861
-0.57462853
-0.55234772
0.32774737
-0.34025526
-0.1482904
-0.83644694
-0.094211474
-0.72217542
-0.30667469
1.698662
0.25410163
-1.5406542
0.010651921
-0.061768427
1.2790545
0.53417075
-0.26173806
0.080007315
-0.39548025
-0.76885033
-0.039435636
0.32055199
-0.17543058
-0.92067558
-0.65405077
0.34477338
0.16816828
0.11063541
0.37162691
-0.0027718241
0.34644082
-0.2636306
0.33446094
0.11649302
-0.017885989
0.44358718
-0.35120663
-0.1815694
-0.24615881
-0.26371589
0.082411654
-0.27526718
-0.42690387
-0.53119946
-0.42887393
-0.11794487
-0.87071276
-0.21159291
-0.0521014
-0.3307471
2.2478471
0.17759089
-1.0338345
-0.25278053
0.77914274
0.80748767
-1.2433933
-0.40782735
-0.32402885
0.98355174
0.94725585
0.55401361
0.90417922
-0.67382789
-1.8140435
-0.41796279
0.03622026
0.44724351
-0.20825614
-0.72180492
0.43181977
0.36214313
-0.26182842
-0.18554175
-0.28181139
-0.073225193
-0.79436475
-0.17959553
0.12046346
0.40085211
0.42741412
0.38197479
0.26591867
0.71448839
-4.7108841
-0.21605432
0.17772347
-0.15641163
0.3164469
0.35198447
-0.35624558
1.7888783
0.49694449
0.61985153
-0.60013533
0.68597138
0.32318741
0.72413898
-1.5360568
-0.78915441
0.50217831
1.3133552
0.22319463
0.88657147
-0.56548864
-1.6516973
0.31183049
-0.40723139
0.30118737
0.53470558
-1.3200952
0.5109424
0.26591828
-0.015005853
0.17124893
0.042053167
0.36048031
-0.0077070985
-0.65275973
-0.14106636
0.18952903
0.3215425
0.14768897
-0.14110585
0.2335223
-4.3252339
-0.28715464
-0.021976776
0.51333123
0.057685245
0.26451522
-0.748649
2.5630052
0.61084312
1.1426558
-0.52354389
-0.090130076
0.67908746
0.6486333
-0.56920552
-0.02322394
-0.08639878
-0.0029353576
0.72021317
0.87283808
-0.77617204
-1.1564174
-0.18349886
-0.076420978
0.2073105
0.17853598
-1.4627123
0.025414811
0.19825131
-0.29834849
0.042551313
-0.58001173
0.087818623
0.19634083
-0.11572487
-0.030661365
-0.24220192
-0.11734006
0.0067913672
-0.32844344
0.062492494
-1.1690289
0.00089012389
-0.1981646
-0.26864141
0.31126967
-0.23471476
-0.64811617
2.2450681
0.10069345
0.91085345
-1.0719528
0.78550786
0.2938953
1.1192489
-0.22548206
0.36728024
0.75425297
1.7549474
-0.15065044
0.48772541
-0.67786992
-1.9327267
-0.45621309
-0.24764694
-0.08382012
0.54473686
-2.3170574
0.18280962
0.10306669
-0.44654149
-0.16667829
-0.60956931
0.12371854
-0.1313559
-0.26160488
-0.084212191
0.19058447
-0.065240249
-0.16069314
0.34732106
-0.020448335
-2.0425785
-0.2806572
0.064996034
0.14678974
0.073474489
-0.1676828
-0.24338923
1.4344593
0.20708004
0.43415105
-1.0101949
0.53781039
-0.10572572
0.49904868
0.38145736
-0.13364258
0.93725199
1.3182878
-0.37160689
0.67772329
-0.3870551
-0.57086241
-0.10006387
-0.6632545
0.033137139
0.16064239
-1.2612052
0.21493058
-0.19314623
-0.057540875
-0.46465138
-0.12690048
-0.29749876
-0.10762972
-0.17714708
0.25482112
0.078370921
0.25891519
-0.37800363
0.0850159
0.24727625
-0.98541623
-0.26536268
-0.078192562
0.18606523
0.010518289
0.17457584
-1.737241
0.13276751
-0.28318393
0.084678732
0.81586319
0.25678623
0.022144862
-0.95244956
0.13133492
0.22979759
-0.047545683
-0.30767697
0.075506993
-0.22318754
0.14361818
-0.17680898
-0.54999983
0.056632061
-0.010405813
-0.50556302
0.54460901
0.076015271
0.077158384
-0.29899248
-0.095952652
0.051369239
0.11194426
-0.071912177
-0.28414389
-0.12361685
0.074698471
-0.026629295
0.0099060908
-0.28119212
0.082213961
-0.2082639
-0.087607533
-0.075965807
-0.26751131
0.056940444
-0.0016110461
-0.62539738
-0.025078554
-0.17997333
0.24081603
0.1101338
0.093002975
0.348023
-0.080331981
0.36536962
-0.14941062
-0.220301
0.41238925
-0.16713205
-0.3421607
-0.044194661
0.13862544
-0.30774707
0.32714781
0.035877038
-0.039100602
0.2731232
-0.062316395
0.063012555
-0.1200527
-0.16542134
0.037378177
-0.32413486
-0.074658073
-0.11443873
0.085714787
-0.24036786
0.00046514481
-0.13205028
-0.089109167
-0.030383745
-0.090397425
-0.14755888
-0.29928544
-0.047095779
0.017263351
-0.094206199
-0.13128896
-0.098965749
-0.34247744
-0.22228356
0.084977031
-0.14608876
0.42102805
0.11933564
0.34086487
0.06580659
-0.14868358
0.11848526
0.17790975
-0.085782021
0.44248199
-0.25199115
0.24142204
0.35585201
0.069630027
-0.61854798
0.1452529
-0.070518881
-0.16926983
0.18278363
-0.17049645
-0.29075745
-0.16306205
-0.11783959
-0.16633998
0.073639125
-0.011286842
-0.24391
-0.044547543
-0.2303542
-0.029536534
-0.10415095
-0.096161745
-0.098752193
-0.43036067
-0.1595149
0.12141572
0.12991723
-0.25544786
-0.56793118
0.24648541
-0.36579615
-0.12408597
0.18728098
0.031631898
0.97517872
0.11266251
0.020840736
0.23230445
-0.13989574
0.0081200637
-0.0456861
-0.21210052
-0.34052512
0.58603507
-0.23557179
-0.09433534
0.23573311
-0.082974613
0.034488432
0.029429557
-0.085921787
-0.21183397
-0.077369325
-0.30787748
-0.062636569
-0.063814029
-0.078054659
-0.37316558
-0.28086555
-0.066795178
-0.13892688
-0.085354507
-0.11080123
-0.067882031
-0.100972
-0.077599198
-0.063134477
0.25207764
-1.4024658
0.46922874
0.33028102
-0.27130818
-0.19721995
0.5566653
0.64290196
1.3412354
0.48172188
-0.18468007
-1.064081
0.84572303
-0.38297603
0.38142398
0.052091882
-0.13896468
1.2657793
0.26125187
0.31969526
0.64830995
-0.27750018
-0.15326107
-0.37075302
-0.39367655
0.059206557
-0.25468153
0.031293716
-0.027972512
-0.18375614
0.060343202
-0.08247032
0.1262809
-0.32883745
-0.2126864
-0.13950257
-0.090177417
0.036422569
0.045031745
-0.171233
0.20617312
0.00064005365
0.13172212
0.041917793
-0.096797645
-1.1199517
0.28729513
0.011452842
-0.29850921
-1.4233346
-0.2658141
-0.51631171
-0.30280194
-0.26661721
0.37687719
0.37477815
0.41795576
0.24983978
0.88201803
0.31490725
-0.12511997
1.1971076
-0.24647254
0.21169053
-0.31299984
-0.23750217
-0.012165943
0.1041185
0.089076586
0.056392379
-0.23655976
0.22551332
0.080056302
0.094620809
0.029958971
0.053594545
-0.30299932
-0.55895698
-0.13334702
0.25815183
0.16152211
0.14801903
-1.4299741
-2.9424398
2.2244892
-1.5129898
-0.29995784
0.078773491
1.0831015
4.7215323
-0.96526504
1.38045
2.3779013
0.26239341
1.4821733
-0.84081692
0.67903745
-1.5615373
1.3095341
3.4322889
0.44294074
0.65607274
2.821743
-0.21368399
-0.10669145
-0.16867754
-0.36921793
0.27367496
-0.13840324
0.17129515
-0.86306012
0.26916689
0.46616352
0.16605811
0.11387357
-0.37280199
0.22486855
-0.90326738
0.11819511
0.18283395
-0.31330609
0.034088098
0.47051674
-0.63883376
-0.082663074
0.18545221
0.33567524
-0.15421143
0.090572737
0.57379246
0.24863207
-0.64468378
-0.025374535
0.67048591
0.44236982
-0.39143732
-0.31838745
0.28534067
0.68330204
-0.21151899
-0.40935409
0.10096811
-0.10060903
0.5710026
-0.20134781
0.21979395
-0.48577952
-0.3512665
0.30804184
-0.16445312
-0.010833496
-1.1336128
-0.48070341
0.35074413
0.21360333
-0.14433862
0.008844398
0.39586437
-0.3081142
-0.41337562
-0.1988084
0.50523907
-0.016709244
0.4287813
-0.020556772
-0.17350818
0.60153401
-0.97316056
0.58678114
0.22436497
-0.20811048
0.56170136
0.057863694
1.0625091
0.59701967
-0.10508431
0.029527249
0.13500667
0.083442472
-1.6185586
-0.25934461
0.46685198
-0.11727701
0.42086485
1.4912388
0.24790776
0.32587561
-0.25061515
-0.073166616
0.25844696
0.069823168
0.11479993
0.18794446
-0.049863853
0.59332001
0.26646015
0.3353911
-0.067992263
0.2391472
-3.6247926
0.10884929
0.34445277
0.17446761
-0.0097561115
0.48873201
-1.2167869
-0.1397296
-0.31302828
0.28105834
0.12750185
-0.33933312
0.19581969
-0.16876546
0.38833243
0.30693635
-0.62112617
0.26556909
-0.34583905
0.0040523079
0.30072835
0.30567664
0.30189449
0.4854632
-0.05772512
-0.23498753
-0.23081928
-0.21495622
-0.17511877
-0.25886366
-0.35232922
-0.24422897
-0.15276626
-0.13390547
-0.024865458
-0.63303059
0.051133059
0.076884717
-0.031694986
-0.1865896
-0.14685062
-0.13718599
0.040539458
-0.048285283
0.093374513
0.12194371
0.1390236
0.1514376
-0.17879809
-0.15187196
-0.02403217
-0.031985767
0.40356332
0.19538596
-0.39972919
0.014763629
-0.18211663
-0.45252714
-0.14856373
-0.15517683
-0.13541839
0.02149535
0.16480021
-0.25797504
0.25125659
0.12728789
-0.19293714
0.89517802
-0.10689421
-0.081709109
0.049183376
0.099028572
-0.66050225
-0.21504124
-0.055239111
-0.072814442
0.0029612521
-0.11928845
-0.13818425
0.097368531
-0.22100921
-0.08665026
-0.37839296
1.7512017e-05
-0.078082994
-0.072408788
-0.1998222
-0.052126449
0.25405157
-0.027381774
0.064861409
0.31365284
0.10228633
-0.3030059
0.46654195
-0.604177
0.23932327
-0.047960225
0.058761165
-0.10065171
0.11455531
-0.36378556
0.062161073
0.37747383
0.31807667
0.0079564732
-0.11738349
0.1483085
0.14761773
-0.1078149
-0.14566572
-0.22210099
-0.15244193
0.1718308
-0.14184479
-0.19840977
0.13741033
-0.31173059
-0.048910953
-0.1591868
-0.14705464
0.079775937
-0.22392003
-0.21608023
-0.082889348
0.0010517731
-0.025039721
-0.20948473
0.087695897
-0.066124
0.10077441
0.16648947
-0.16116884
0.14315456
0.07340882
-0.33758947
-0.35245818
0.33455259
0.12788735
-0.83558869
-0.43051809
-0.2729373
0.22598027
-0.23259611
0.12279858
-0.30711082
0.072170712
-0.0093196407
0.1146483
0.88555336
-0.23361368
-0.38755885
0.10273694
-0.077640243
-0.0016646724
0.27620313
0.0059625641
0.046106681
-0.25266859
0.014126362
-0.094783887
0.076107562
-0.065194435
-0.031261459
-0.2924
-0.0054597077
-0.13205869
-0.90843588
0.0058124722
-0.10362425
0.21043083
-0.26151049
0.30104646
0.036989987
0.32555211
0.23473069
-0.090823799
-0.069019921
0.17439678
0.13906406
-0.40779811
-0.01523569
-0.30118227
0.058513027
-0.34923884
0.13678119
-0.39718431
0.2886579
-0.15076649
0.24158788
0.38055238
-0.08622431
-0.16296241
-0.0087892031
-0.14366154
-0.028269745
0.012257458
-0.23189323
-0.12468742
-0.10995585
-0.062603444
-0.11907283
-0.08237911
-0.072863884
0.09149459
-0.29241166
0.018283954
-0.059673078
-0.15844031
-0.12620914
-0.13067307
-0.047877882
-0.017554188
0.033044789
0.018697454
0.13323873
-0.36752182
0.015484218
0.16705553
0.38694802
0.019209107
0.15799682
-0.16527526
-0.5372268
0.023891238
0.31394428
-0.17083408
-0.096064851
0.079714738
-0.05442185
-0.074637614
-0.10340957
-0.13338111
0.058693923
0.034284573
-0.12770586
0.14549857
-0.021492248
0.0023199625
-0.23405896
-0.54580283
0.070928082
-0.10203599
0.061649133
-0.073714733
-0.15424331
0.049753003
-0.0062769647
0.058572043
-0.13813628
-0.17108202
-0.10577429
-0.60345948
0.99825883
-0.17823726
-0.17895368
0.07641039
0.39036834
-0.061168779
0.061429892
-0.16507252
-0.33889776
-0.041884389
0.55816364
0.44973439
0.20071004
0.03376792
-0.29858005
0.0063759955
0.23741783
-0.21520098
-0.005349881
-0.37892246
0.025661968
0.09667097
-0.41099495
-0.21438846
-0.47065115
0.017903199
-0.0048426529
-0.33894089
0.25838608
0.16021048
0.1021281
0.015488726
0.028611641
0.31343883
-0.25204313
-0.084460966
-0.21491805
0.41858035
-0.081035592
-0.025195284
-1.7047199
-0.21706629
-0.10530514
0.29850987
-0.20890993
0.0055559282
0.82594782
0.10287177
-0.45712411
-0.47968164
-0.12773998
0.18610911
-0.5645569
0.34956422
0.016829703
-0.36727238
0.99528891
-0.098612025
0.16575819
0.23226431
-0.68117028
-0.088772014
0.24177702
-0.096721701
-0.074194595
-0.022358794
-0.0058031706
-0.065449379
-0.6103577
0.16175452
0.25432444
0.15779819
0.033385616
-0.019682651
0.054145455
-0.47143158
-0.2029967
-0.035194084
-0.48862922
-0.15376315
0.17814793
-1.0646297
1.1949503
-0.38014704
0.32761028
0.11988117
-0.37849885
0.48004758
0.90490884
-0.64817965
-0.34070688
0.41709769
0.71610558
-0.27574679
-0.0046691722
0.21017084
-0.047013145
-0.19264615
0.11202881
0.62504488
-0.22742906
-0.87657845
0.13878907
0.14701818
-0.28944823
-0.12398426
0.28483319
-0.082964793
-0.17731111
-0.33321548
-0.071265124
0.039234038
0.12703303
0.018729379
-0.10067732
0.15684682
-0.53309
-0.13341253
-0.11906755
-0.1422206
-0.16638482
0.04051017
-1.1082
1.8290387
0.49887285
-0.96411645
0.19492091
-0.034562342
1.0090005
0.93809509
0.37351617
-0.51286685
0.81258374
1.3281888
-0.3247515
0.18179297
0.27391228
0.11603028
-2.4858065
0.94748408
0.22458556
0.46821055
-0.55705541
-0.040039208
-0.12220336
-0.33670801
-0.35959786
0.17338313
-0.026079029
-0.030740758
-0.39439657
-0.33787015
0.20740388
0.1346273
-0.30135179
0.046902068
0.34019393
-0.30986321
-0.48465231
-0.33381402
0.17253479
0.41790184
0.12620439
-0.90139252
0.96986181
-0.089921951
0.10180666
-1.2370269
-0.11356228
1.0066252
0.71736121
-0.49573788
-0.022033509
0.58343899
0.060455833
0.098779157
0.033600941
0.37483045
-0.73922688
-0.18586819
0.019649083
-0.030536618
-0.10113255
-0.38393569
0.114642
-0.071383476
-0.10389274
-0.39673284
-0.042856768
0.039008774
-0.15053377
-0.33267817
0.25603473
0.20874102
0.058600795
-0.30578941
-0.052277934
0.060381718
-1.2674717
-0.16908704
-0.092957012
-0.078192443
0.14688902
-0.064254984
-0.14833772
-0.12481916
-0.0029272416
0.3479864
-0.95807272
0.51002532
0.85742933
-0.014178244
-1.0468894
-0.21310961
0.50316745
-0.39537549
1.1819867
0.38370955
-0.10639101
-1.4032718
0.16181776
-0.17482831
-0.018705407
-0.18781896
-0.77622819
-0.16110577
0.019846933
-0.10182736
0.012001661
-0.15161823
-0.13075463
-0.22308005
-0.91304839
0.24836783
0.056273177
-0.094434284
-0.20969513
0.17181849
0.07679987
-0.83427447
-0.13320997
0.037829775
0.0078801643
-0.067216665
-0.13560556
0.14823195
1.4541605
0.59948957
-0.61120343
0.033411447
0.35651559
0.36063248
1.0697248
0.0053882706
-0.2410465
1.3986661
0.91119355
0.79073602
0.4207269
0.42787305
-1.3890665
-2.2077138
0.65370399
0.16502008
0.50110394
-0.56304634
-0.0093637835
-0.033818476
-0.53215677
-0.13144402
-0.60494524
-0.28475827
-0.12277124
-0.60080224
-0.13989446
0.2307657
0.006773131
-0.19491661
0.090312608
0.032817185
0.30455518
-0.68518645
-0.057803202
0.026170548
0.073551156
0.017826635
0.21225847
1.1307728
0.27738884
-0.25117329
-0.44237399
0.36417818
-0.72489601
0.88043219
0.18012175
0.0063988017
0.65139323
0.6946038
0.2806524
0.51844072
0.73616177
-1.2022637
-1.5133995
1.5022939
0.16955641
0.2939457
-0.5526253
0.12513618
-0.20197253
-0.4014751
-0.55796462
0.1222205
-0.18543118
-0.15986261
-0.72470105
-0.23639923
0.45192289
0.092082322
0.079316773
-0.26920316
-0.07327152
-0.33792612
-0.12447768
0.22193307
-0.21583909
-0.014755936
0.13076107
-0.0077373134
-1.3761045
-0.035919759
-0.096169144
-0.65546799
0.38754234
0.31629455
-0.51661843
-0.10670683
0.12923422
-0.28995037
-0.95160937
0.076523215
-0.21460402
-0.086860441
-0.44945583
0.78823614
-0.20948814
0.18884358
-0.01696633
0.41965806
0.011530258
-0.22907099
-0.40062729
-0.24855824
-0.019544099
-0.24455574
-0.63494736
0.65258318
0.092683457
0.25263309
-0.032079685
-0.38439357
0.095878698
0.25218168
-1.6994705
-0.19263102
0.18141039
-0.22561739
0.47771949
-0.0082553951
0.034646947
-0.86137968
0.0402513
-0.3204461
-0.077871963
0.44344801
0.11087231
0.08825969
-0.092073694
-0.0421963
-0.14243615
-0.89594519
-0.2770327
0.39183497
-0.067648709
-0.23564492
0.34853449
-0.79064059
-0.25834906
0.25473592
0.62508798
-0.019550085
-0.11398726
0.13068737
0.29136145
-0.65558255
-0.054096274
0.23799424
-0.030095838
-0.26070789
-0.21548857
-0.33666813
0.041532099
-0.37867218
-0.64320886
0.32423219
0.18465558
0.12983778
-0.50175047
0.018774534
-0.21526709
-0.25863922
0.10150012
0.070732132
-0.045339804
0.38376179
0.27940834
0.26906532
0.48675168
-0.31956279
-0.30373415
0.3446224
0.1427943
-0.43828642
0.51709634
0.18674326
-0.16381378
-0.071713336
0.46823299
0.15545098
0.33226272
0.096963696
0.052574847
-0.12068878
0.19888896
-0.0021074379
-0.24400479
-0.26621693
0.13135499
-0.51228786
-0.049599797
-0.07843814
-0.12076126
0.059145469
-0.14030889
-0.13959788
0.16768929
0.1041758
0.0082172072
-0.23187208
0.16143937
-0.31278753
-0.80069327
-0.25892985
-0.099180125
-0.10083722
-0.28726384
0.1623963
0.81354928
-0.50007981
-0.11008371
-0.14219496
0.22382818
0.27007028
0.061060838
-0.16161881
0.15257713
0.044312574
0.33718118
0.23946318
-0.080144361
0.1268059
0.093845412
-0.10749809
-0.12040408
0.24658145
0.076992892
-0.106833
-0.022017371
-0.17095767
-0.19390036
-0.17767648
-0.12683971
-0.19713736
-0.20341721
-0.076188736
-0.10059319
0.1150919
-0.16058265
-0.15065154
-0.025808727
-0.11514466
-0.2749919
-0.31441042
-0.6832552
-0.89270729
-0.22673886
-0.39347968
-0.092471808
0.31987652
0.28898418
-0.1084995
-0.1649072
-0.71274877
-0.48334047
-0.18700956
-0.21403114
0.21945539
0.094432808
0.69144934
0.077752836
-0.20740718
-0.1128152
0.61840606
-0.39546719
-0.11552534
-0.008415929
0.089961961
-0.079445884
-0.037332643
-0.10526583
-0.10865439
0.18233101
-0.016678412
-0.18170717
-0.2968905
-0.11168837
-0.058940228
-0.2864888
-0.32136664
-0.21886998
-0.39000186
-0.056129228
-0.079152808
0.41068912
-0.22042157
-0.13660933
-0.052612156
0.12926009
0.15815008
0.13751771
-0.24726672
-0.012114844
-0.18133302
-0.3185592
-0.02548412
0.21553603
-0.13507867
0.33559769
0.037863888
-0.42141739
0.60283124
-0.11017226
0.29846144
0.012872766
-0.25376505
-0.2651931
0.075790137
0.016250964
-0.01640578
-0.077714577
-0.20828421
-0.24830179
0.17636253
0.012375653
-0.14916801
-0.14859954
0.1365584
-0.33462241
-0.31244233
0.0038768032
-0.036020808
-0.16261926
-0.19614674
-0.065402985
-0.24676244
0.095315591
0.023604888
0.0031387503
0.30144772
-0.013388887
0.12120824
-0.44085014
0.22054286
0.49114782
0.16995591
0.70499295
0.079184227
0.076747283
0.2113857
0.072520278
0.33169314
0.014854743
-0.21311919
-0.15091166
0.058637265
-0.31539881
-0.15841371
-0.13828465
-0.16539696
-0.40235686
-0.14785922
0.072213307
0.060101211
-0.21951239
-0.030204706
-0.10808095
0.020527037
0.019421944
-0.04587879
-0.020752884
0.023364129
-0.12945993
-0.098297313
0.022751728
-0.27053696
-0.27253726
-0.094321653
-0.17586161
0.24818455
-0.2462797
0.32006127
0.036492951
0.26789659
-0.057993643
0.026201611
-0.37984112
0.27563611
-0.4179979
0.2920998
0.041774709
0.10126484
-0.13928352
-0.12404554
-0.05302798
-0.17270957
-0.076300517
-0.16646619
0.054568026
0.027761059
-0.08259587
-0.54390341
-0.16947412
-0.064199209
-0.21450652
-0.13059129
-0.073771201
-0.20557198
-0.076565072
-0.31614548
-0.23671384
-0.23292835
0.028762862
-0.24647346
0.047565114
0.17744309
-0.32299477
0.081490122
-0.00341431
-0.43428969
0.046504151
0.24248725
0.058124907
-0.28827986
0.12337283
-0.32895571
0.29043666
0.078693703
-0.0092420038
0.43797728
0.015519484
-0.299308
0.21805246
0.083855435
-0.42821315
-0.018723229
0.031877462
0.19126692
-0.087825678
-0.16746186
-0.11356088
-0.15811057
-0.059397932
-0.2037663
-0.10640394
-0.11199546
-0.33584955
-0.39385104
-0.33435056
-0.067963734
0.086563289
-0.24772823
-0.31565586
-0.14746717
-0.060945861
0.043547951
-0.21109472
-0.2141194
0.43677416
0.12788147
-0.072885707
0.098979786
0.34211665
-0.067589529
0.23354675
0.21314403
-0.21355268
-0.077549703
0.2812033
-0.1455128
0.17542429
0.094628721
0.059646796
0.12698054
-0.095737159
-0.079881832
0.11205189
-0.03730398
-0.34110057
0.098976277
-0.08150737
-0.24738687
-0.15658692
0.2288727
-0.01956968
-0.041455802
-0.16494408
-0.09929473
-0.080072261
-0.11768825
0.11321011
-0.20111501
-0.18639043
0.13038138
-0.21408336
0.060116455
-0.58075535
-0.36121449
-0.050450191
-0.51836753
0.25440612
-0.03346106
-0.026903061
0.051495329
-0.0095665939
0.091747336
-0.0040008673
0.086280279
-0.29697719
-0.17193559
0.034958065
-0.24946916
0.15800431
-0.10516712
0.13978554
0.060323253
-0.25702664
-0.026024029
0.19322233
-0.079291336
-0.21218953
-0.15395078
-0.0051530339
0.033882782
-0.32531261
0.04786136
0.0093146479
-0.17966087
0.089098521
-0.19659413
-0.10728548
-0.0031374418
-0.098336868
-0.072047599
-0.16727465
0.039045345
0.04706876
0.019631214
-0.34999546
-0.24224383
-0.71245861
-0.73702669
-0.31052443
0.16986471
0.073925205
0.0077849133
0.19878401
-0.70700157
-0.32194436
0.085223168
-0.24409144
-0.26491955
0.07953158
0.26618317
-0.14202717
-0.035318971
0.5715391
0.053609349
-0.082420424
-0.041294452
0.060741104
-0.021723282
-0.32851741
-0.21207011
-0.097757243
-0.27129963
0.019964192
-0.17977262
-0.42216074
-0.15297876
-0.10694205
-0.021895079
-0.48286831
0.16445391
-0.21402726
-0.3087177
-0.16130841
-0.061077461
-0.14670399
-0.20091383
-0.20812671
0.95199662
0.064912289
0.087015592
-0.070828065
0.65825999
0.14704442
0.76906556
0.071528926
0.1173754
0.41207296
0.47395438
-0.27182239
0.37044773
0.095233381
-0.068773493
0.42802912
-0.11072447
-0.14428528
0.097359456
0.12724967
-0.51035672
0.15210733
0.091817766
-0.14053093
0.24785407
0.10674569
0.1795828
0.17704418
-0.26535162
-0.44581187
-0.13913749
-0.1948303
0.0034082201
-0.22679271
-0.41849408
0.0056548631
0.093872152
-0.11653827
-0.36929423
-0.34815893
-0.11951911
-0.85200948
0.92347568
0.493958
0.17935361
1.1982887
-0.46142671
0.20263173
0.41555718
0.040669084
-0.0083638495
-0.43817824
0.21603864
-0.063877679
0.47715324
0.24823838
0.38166392
-0.22105145
-0.3011359
0.49586803
0.2360227
0.032020856
0.26327384
0.079586267
0.24385819
0.26209432
-0.28194433
0.1039253
0.34069175
-0.34876049
-0.14642537
-0.2740382
-0.16116484
-0.0018479414
-0.34751788
-0.096784428
0.023177296
-0.15606715
0.19145522
-0.19838759
-0.01580778
-0.21066819
-1.8384535
0.77902579
-0.67076766
-0.69220281
-0.715639
0.16947491
0.023944622
-0.79962164
-0.048684176
-0.084627949
0.065406665
0.07672257
-0.86189187
0.23170492
0.13880385
-0.31946
-0.53620702
-0.47440737
-0.23451942
-0.39559239
-0.46504995
0.22909445
0.50510669
-0.68610239
-1.0139256
-0.36348587
0.14372261
0.1644972
-0.57286704
0.25364721
0.28488874
0.19512601
-0.22216134
-0.0040360866
0.11522301
-0.58529949
-0.53296864
-0.50994444
0.23204564
0.059724331
0.15747666
-0.028907573
0.64817476
0.87051982
-0.22750358
-0.15300795
0.44422463
0.17997564
0.37036771
-0.61375183
-0.017040595
0.049318228
0.017783951
-0.33991751
0.50034481
-0.34002021
0.059763581
-0.52787393
-1.6174426
0.20977905
0.15212066
0.19320352
0.19120021
0.13200988
-0.080821954
-0.12931718
0.12761609
0.075871401
0.007846226
-0.91134381
-0.10833883
0.17273594
0.26108798
0.075051464
0.0046689222
-0.18414783
-0.86200356
-0.47758862
-0.19916353
0.14202522
-0.18578152
0.072773166
-0.55124027
4.7706618
2.0035815
2.7532721
2.3965073
-0.73236948
2.0238283
2.5383673
-0.060798012
-0.70094931
1.202005
3.3438876
1.9640363
0.62922186
0.60105908
-2.3431485
-0.55034405
1.14415
0.11517671
0.4098804
-1.6842566
0.36155277
0.32656339
0.11362255
-0.11507387
-0.61771291
0.27737737
0.094396845
-0.82029873
0.043719348
-0.043846153
0.25165957
0.4391177
0.22447054
-0.16544643
-3.309196
0.22681357
0.18670171
0.2392842
0.28938401
0.14143097
-0.5710237
1.8059493
0.057343155
0.76487458
-0.72408336
0.098185241
0.41813666
-0.39171556
-0.50515759
0.64307654
-0.35887018
0.68490154
0.01041491
0.64638197
-0.26237494
-1.7548714
-0.43141538
-0.42613339
0.10691772
0.3623561
-0.57366681
0.55925941
0.35361397
0.19484879
-0.075173184
-0.26952088
0.52305412
0.4333818
-0.36742267
0.023660276
0.061533343
0.1117276
0.52950191
0.19918363
0.094363123
-4.4322968
0.042926557
0.13392796
-0.19576566
0.14462952
0.12698503
-0.68266767
-0.25589091
-0.24884057
-0.0071080429
-0.93603903
0.13908988
-0.053094547
-0.24981035
0.053299349
0.04534879
-0.2392718
0.34842944
-0.42419225
0.58753699
0.27224851
-0.084473588
0.22588637
-0.49312592
-0.36927858
-0.26389414
-0.17261569
0.25397557
0.026555616
-0.23657309
-0.42740119
-0.54986572
-0.099816896
-0.30730399
0.088184364
0.040741649
0.22414985
0.28275004
-0.38608971
0.27883708
0.059334084
-0.99697685
-0.31797284
-0.11872926
0.023735981
0.22389235
0.094793335
-0.84599948
-0.16670638
0.34762669
0.53715605
-0.20914733
0.34086519
0.8811664
0.37769935
0.65561044
-0.21562167
-0.40787667
-0.028049981
0.29919291
0.19623305
-0.23415241
-0.082898207
-0.69565856
-0.53307116
0.26605877
0.049239703
0.20329098
0.084490873
-0.044558164
-0.022183636
-0.21989392
-0.061329294
-0.0770448
0.029951397
-0.024244167
-0.021808609
-0.0057626516
-0.081485733
0.063800924
0.082550786
-0.27045399
0.013313493
-0.11816748
-0.089218147
-0.539316
0.040929884
-0.19854087
-1.0836449
0.084354363
0.442653
0.19785893
0.281955
-0.0028667746
-0.020668127
0.84470409
0.32534897
-0.12620762
0.41959277
0.27500251
0.48207372
0.26923567
0.034255199
0.38032132
-0.36672476
0.1143763
0.27212194
-0.10307465
-0.83564264
0.091387175
-0.18701334
0.12327932
-0.17662956
-0.23902175
0.15793355
0.016457148
-0.14627104
-0.18278673
-0.18447194
-0.18732649
0.039287303
-0.11228692
-0.1415861
-0.18500629
0.037924029
0.027076963
-0.17349483
-0.15328309
-0.095110781
-0.98727989
-0.14097464
-0.062106699
-0.045958716
-0.01102674
0.085353568
-0.28948611
0.034850959
-0.26484939
0.031744037
-0.016843475
0.067555688
0.13915153
0.12685758
0.34813583
0.29938918
0.10407479
0.09584254
0.21137503
-0.41628841
-0.40483335
0.010937632
-0.17117161
-0.077972956
-0.15071423
-0.32247868
0.068560712
-0.0004947483
-0.2868816
-0.29556942
-0.091166928
-0.15059069
-0.24406622
-0.058335438
0.039062537
-0.32821995
-0.12003693
-0.19242419
-0.36436841
0.06312146
-0.073621452
0.073036909
-0.84081906
-0.35418564
0.32209107
-0.16887853
-0.13218284
0.11345159
0.1462819
0.6012305
0.086634748
0.0013570472
0.17504385
-0.32272288
0.33646935
0.34076032
0.30691546
-0.65901774
0.73379928
0.1087565
-0.61918539
-0.16410623
0.35100242
0.40537861
-0.05272726
0.070165426
0.89628655
0.063601747
-0.071620546
-0.11954894
0.49497628
-0.26477182
0.036504079
0.24170542
-0.016160985
0.070712186
0.16712938
0.15569548
-0.19577356
-0.13225989
0.14347222
0.17803678
-0.048916452
-0.23210782
-0.087671138
0.042226624
0.09773577
0.54213017
-0.36053419
-0.38897356
-0.10815798
0.47687963
-0.14255239
-0.46332809
0.21411428
-0.75077677
-0.0088696638
0.1957791
-0.74450201
0.24419978
-0.022943139
-0.16005749
0.8798849
0.030477339
-0.10260286
0.10980529
-0.025923764
0.84499758
-0.15704785
0.11179733
0.092396021
-0.24689901
-0.067758098
0.048401352
0.08116962
0.75255412
0.27337447
0.012579377
-0.1392381
-0.026166847
0.069093116
0.37603986
-0.15266223
0.53790081
-0.89565492
0.91020691
-0.33730692
-0.21556883
0.14910085
-0.61022145
0.066293769
0.56436235
0.30423921
-0.13465731
0.021023799
-0.72125661
0.40672654
-0.085602596
-0.16410343
0.079791851
1.0166676
-0.50098938
-0.069961987
-0.35069159
0.022046862
-0.036160395
0.12894277
0.023368001
0.67541826
-0.051325999
-0.13357782
0.77155799
0.64268446
-0.038370613
-0.033249795
-0.014434818
-0.034301713
-0.33935463
-0.010194132
0.090114363
0.28533438
-0.083901927
0.0004406317
0.032441549
0.64181405
-0.70442402
0.4195503
-0.21088423
-0.54128593
-0.050488286
-0.54704708
0.5991711
0.5627811
-0.12094384
0.40782267
-0.30081609
-0.0028682025
-0.76760775
0.68482
0.54280877
0.18691844
0.25542632
-0.32588467
0.17498222
0.22848095
0.081360258
0.10456495
0.12596641
-0.022789307
1.0473503
0.059898768
0.2406248
0.23435877
-0.038936008
0.27751082
0.060036093
0.15849386
0.12931409
0.11910505
-0.0012215792
0.11316462
0.20532534
0.090516552
-0.29454833
0.04573204
-0.16729645
-0.7647177
0.010339798
-0.43059972
0.03844424
-0.55237573
-0.12186405
0.19601452
0.4885298
0.55137426
0.8753857
-1.3682675
0.018522354
0.083052926
-0.43783364
-0.15732558
-1.3099556
-0.4785963
-0.4937081
0.43833342
1.0473953
-0.042790491
0.14137921
0.32715774
0.15841138
-0.095886707
0.29369119
0.26827154
0.02880921
-0.030955436
0.00532775
-0.053837981
0.040747982
0.23588844
0.076969646
0.26439893
0.22695048
-0.0081608472
0.93655068
0.20996007
0.18973254
-0.6099304
0.67035878
-0.24188864
-0.50399172
-0.70606977
0.38962531
-1.074031
0.070982844
-2.5726488
-0.63865155
0.3003532
-0.011991506
-1.1345528
0.34918678
-0.36735931
-0.33856413
-0.051686905
-0.30368116
-0.41118148
0.22366461
0.57063168
0.21309203
0.087946393
0.30820715
0.47359955
0.054407008
0.10546949
0.3412303
0.14597282
0.11432801
0.34217817
0.24193531
0.08232753
-0.14248569
0.18331358
0.72246027
0.084897563
-0.1856894
0.30545846
0.038641959
-0.056169096
-0.73074234
-1.5588776
-0.37498882
0.51992851
1.7222222
-0.56665015
-1.7797239
-0.96194303
0.91764265
-0.48259789
-0.48079365
-0.27422029
0.32073939
0.34001628
-0.42849314
1.2436535
0.016739804
-0.61668539
0.06120722
-0.2000559
-0.72292233
0.28542742
-0.042323649
0.33399159
0.65077537
0.28194925
0.24832132
0.4317292
1.3074176
0.54228246
0.027939927
0.17983581
-0.013131783
0.15039699
0.33245569
0.30347854
0.4296537
0.40471056
-0.11165731
0.31287876
0.26182467
-3.2564385
0.99211591
0.71229959
0.60119718
1.2306756
-0.76260167
0.11640648
0.95344383
0.51103282
0.53919345
0.0062409197
0.52598917
0.47846097
0.18970923
-0.089259811
-0.76452649
-1.6024544
0.55527341
0.37853661
1.1236187
1.0446322
-0.19605692
-0.13089047
1.1792063
0.34046394
0.23791453
-0.15881917
0.20085059
0.60272872
-0.5646987
0.070110008
0.36289757
0.081151143
0.71943176
-0.021364925
-1.8693455
0.081180468
-0.15641667
2.0183604
0.15344955
-0.21852203
0.029170105
0.27297077
-0.091329053
0.41632691
-1.2522677
-0.086024299
-1.1672281
2.0600073
0.94771779
-0.11744149
-0.14476936
1.3392887
-1.3088667
0.45060989
-0.16054018
-1.5095992
-0.79784536
-0.17751294
0.198696
0.25536969
-0.082859412
0.075540885
0.24514523
0.018680163
-0.25312009
0.67450136
0.021743005
0.36291438
1.9672017
0.29156423
0.075998567
0.09703815
0.30512434
0.38371032
0.19007196
-0.21497151
0.35272574
0.044731513
0.52224553
0.034196924
0.2831054
-2.2649403
1.1403571
-0.38615122
0.50775963
0.95623541
-0.21467838
1.035604
-1.3385345
-0.70679933
-0.24068017
-0.80120933
0.17633496
0.37639275
0.40941277
-0.24393493
-0.76878804
0.30769157
-0.45390856
0.21361853
-0.21011673
-0.0032930449
-0.021963593
0.021847414
0.3270902
-0.022616385
0.62930304
-0.015092898
0.0097692609
-0.3612949
0.58295155
0.0057599321
0.078552425
0.13769664
0.091928899
-0.048149142
0.16079696
0.12638241
0.2710492
0.38276637
0.1519272
-0.089013696
0.099081621
0.67956096
-0.37593633
0.85469049
-0.72388226
-0.53679806
-0.57834536
0.66538018
0.0078155044
0.42941126
-0.14359869
0.4125492
0.16362126
0.23281358
0.071659312
-0.15943608
0.31784394
-0.15497619
0.3156155
-0.17494665
-0.38748491
-0.2623423
-0.11138398
0.20452176
-0.14006688
-0.47874114
0.098059446
-0.1726667
0.35071921
0.10556992
0.047900818
-0.068615802
0.35903618
0.34887177
0.26479045
-0.0050479723
0.070871331
-0.059266061
0.91951698
0.32777098
-0.046825282
0.70555437
1.5314791
-0.058855228
0.1322542
-0.42117375
-0.11642285
-1.2222369
0.61981827
-0.1309327
-0.012954732
-0.70419401
-0.23653494
0.13413192
0.20544684
-0.25204873
0.35934594
-0.92556524
-0.69772393
-0.54893845
-0.13475594
-0.61827749
0.069747396
-0.17629562
-0.022373417
-0.01845685
-0.080674574
-0.2483246
0.17990389
0.3467488
0.27711311
0.28015134
-0.0049102441
-0.02602333
0.10209659
0.28521097
-0.44368464
0.027759768
0.16716066
0.71874988
0.54238594
0.057079583
0.69081396
0.085780255
0.029760033
0.16135412
0.26861632
-0.2515139
0.31103751
-0.058988821
0.78964716
0.11669676
-0.012390115
0.14392605
-0.091173343
-0.20512185
-0.032127533
-0.66561025
0.36931521
-0.10380898
0.21697396
-0.4421536
-0.66564471
0.13205376
-0.012788672
-0.27130571
0.042851422
0.024680058
0.23731601
0.22682491
-0.050288804
0.35834679
0.13948621
-0.088807702
0.13198344
-0.18606754
0.07331603
0.58318418
-0.13209096
0.36384028
1.0210613
0.22002393
-0.0070372596
-0.21323065
-0.013493139
0.24559586
-0.053989064
0.4989908
-0.030155029
0.38172993
-0.0093033379
0.13911377
0.54169977
-0.09252055
0.5385527
-0.28421786
0.1027971
-0.090049617
-0.24402069
-0.48841056
0.094528854
0.1110293
-0.229165
-0.60669869
0.24429131
-0.086390719
0.22929899
0.035860531
-0.088903993
0.060244769
0.2422246
0.26619995
-0.21020797
0.089960054
-0.053603306
0.10664942
0.20361327
0.30626526
0.38624221
0.019185867
0.085080542
0.3529135
-0.018297644
0.095643446
0.22273739
-0.13181564
-0.63156104
0.35822278
-0.025272794
0.070729218
-0.064549744
-0.21708237
-0.60049683
0.0909288
0.1583364
-0.16972932
0.38013658
0.021497535
-0.10521992
-0.015869942
0.054533985
0.32130843
0.089971006
-0.11298748
-0.78523725
0.074717321
-0.28913563
0.020745046
0.06941504
0.16009039
0.41302028
0.00093440729
0.21762753
-0.12982354
0.24969755
0.28099251
0.018335827
0.12094342
0.092067309
0.18967545
0.38627625
0.067472957
-0.34823251
0.083847128
0.20511611
0.79884899
0.23562211
0.14585833
-0.77843243
-0.18908116
0.097275309
-0.89749396
-0.32913932
1.0196059
0.58388305
0.31172264
-0.49676904
-0.67459095
0.17051589
0.067045338
0.42715231
-0.21648255
-0.053542271
-0.14708225
-0.13103601
0.39773288
-0.23993644
0.19452557
0.038677879
-0.43615833
-0.44011527
-0.15570827
-0.029208627
0.10660502
0.466005
0.21323988
-0.033313416
-0.24043761
-0.38621449
-0.23008901
-0.036078297
0.089667492
-0.063592583
-0.086479515
-0.51837063
0.082250282
-1.0169641
-0.50335813
-0.23871867
0.56061518
-1.1986611
0.43946284
0.15604378
-0.63276106
0.68231338
0.14663804
0.2263048
-0.36037764
-0.49257466
0.10370214
-0.23646085
0.30248687
0.28616017
-0.0057882075
-0.30586582
-0.060439169
-0.05626652
-0.23373887
0.11408519
-0.33942437
-0.53909665
-0.013266271
-0.30253005
-0.30942112
0.090313278
0.18468478
0.2099655
-0.13009785
-0.57014608
-0.44409004
-0.094622046
-0.38934523
-0.29344732
0.036877438
0.49089107
-0.28039443
0.048165526
-0.076650061
-0.33223888
-0.74480414
0.47521645
0.49446288
0.70687962
-0.26692179
-1.1964519
0.78562111
-0.70186502
0.15287107
-0.28771889
0.50681245
0.10971231
0.29770374
0.59576851
0.067977265
0.1849916
0.20789471
-0.1329259
0.13938926
-0.1559159
-0.26693478
-0.42905208
-0.2917574
0.21242724
-0.34166279
-0.56736892
0.45045003
0.17227842
-0.040844359
-0.23963411
-0.30456454
-0.39400098
-0.056105118
-0.22591437
-0.29538405
0.059041426
-0.24032183
0.17317249
-0.12205127
0.11930001
-0.12112048
-0.88926232
-0.78794384
-0.02787666
0.26152271
-0.45807827
-1.006832
1.9978631
0.31801367
-0.22602557
0.59650308
-0.17663671
0.13150345
0.14866577
0.90435898
1.1050664
0.18140978
0.15629992
-0.18175851
0.66474718
-0.34264126
-0.69161385
-0.4433901
-0.42940328
0.067152902
-0.54355764
-0.77543616
0.27639106
0.29983681
0.10573918
0.23426624
-0.36633795
-0.12251151
-0.0073384983
0.19181876
-0.23800571
-0.021897336
0.17434667
0.018198475
-0.14393704
-0.16614179
-0.10826116
-1.6124918
-0.49000654
-0.87536186
-0.54088449
-1.0378274
-0.075887904
0.70268834
0.99736094
0.098284483
0.70666617
1.0228451
-0.68548632
-1.2533364
0.39331964
1.1031294
-0.1371064
0.19898279
0.23801765
-0.314419
-0.032416236
-0.5978719
-0.22344819
-0.82668877
0.38726547
-0.49939212
-0.63800758
0.5550288
0.01561742
-0.0003380726
0.30382019
-0.40152612
0.0071779806
0.1793586
-0.70094067
-0.30943239
0.13516863
-0.020011198
0.018811857
-0.031041665
0.045770075
-0.89477628
-1.184381
-1.1628866
-0.42461509
0.50655276
-0.77538747
0.85490566
0.79691476
0.80516994
0.071794465
0.71416986
0.32907158
-0.26180911
-1.5465089
0.47904271
0.66934597
-0.12558815
0.23672643
0.48816791
-0.48233718
-0.065091312
-0.39850181
-0.25450906
-0.055139713
0.38390213
-0.53164309
-0.053757764
0.22446187
0.10885379
0.01389455
0.1305749
-0.26778933
-0.40423167
0.11516864
-0.92007762
-0.3237074
0.14530011
-0.43549186
-0.058303084
-0.057902202
-0.11997704
1.3351226
-0.98792613
-0.68873805
-0.25540316
-1.1613921
-0.49168476
1.0423547
0.83849031
-0.027860826
1.1511492
0.89051592
0.76447606
0.20888458
0.25322899
0.66381288
0.25202543
0.11498549
0.64843434
0.8027209
-0.70179594
0.0030586077
-0.44833675
0.065015189
-0.065364443
-0.36362424
-0.32918176
0.11722311
-0.027572528
-0.051564436
0.027066991
0.036195811
-0.081154488
-0.25203529
-0.18367
-0.26243564
-0.18443109
0.083980605
-0.43447047
-0.025703529
0.13441403
-0.3913393
1.7459767
-1.22781
0.40084258
-0.28144836
-1.1235491
-0.071730293
-0.039590228
-0.15229711
0.026768263
0.19305082
1.3017448
-0.43641829
0.52440602
0.062113766
-0.24790698
-0.043808743
0.92858648
0.39275298
0.02962748
-0.13235827
0.0044250013
0.093778476
-0.20754322
-0.63328898
-0.39608946
-0.11194535
0.096634075
0.091127858
-0.61093509
0.16652785
0.15940416
-0.0077059758
-0.34674829
-0.12173407
-0.6408186
-0.099638723
-0.04082283
-0.64035976
0.34387556
0.15479328
0.026739577
0.82005322
-0.50101215
-0.55434316
-1.0021749
0.0067269872
-0.32520124
0.023805512
-1.2871406
0.21855247
-0.12852135
0.81716394
0.037629306
0.3178809
-0.80956042
-0.98160285
0.51433957
0.24844119
-0.23857789
0.063207671
-0.37548968
0.32991865
0.0337056
-0.15334818
-0.52772534
-0.061785221
-0.17148727
-0.22002335
0.39707199
0.064569816
0.12096854
0.27111453
-0.42131057
0.23281133
-0.073858939
-1.2146587
-0.10889161
-0.12627463
-0.98501897
0.13146175
0.22325766
-0.40280512
1.2990537
0.22401144
-0.23773709
-0.32443815
0.20423329
0.24208817
-0.59760934
-0.073078662
0.16920684
-0.24056128
1.0335125
0.76078671
0.59410763
-0.71612459
-1.3432009
0.18814287
-0.39546373
-0.21108198
0.51090729
-0.93215024
0.030499268
-0.21732919
-0.10254341
-0.22275282
-0.80970269
-0.35897505
-0.31272
0.12656419
0.18521373
0.28387249
0.318443
-0.310507
-0.26307231
0.42110226
-0.62193269
0.087033004
0.11647909
-0.56351221
-0.12978294
0.10246495
-0.15415427
1.1534253
-0.085656427
0.45564705
-0.16069975
0.51676387
-0.11704091
-0.64818043
-0.1143636
0.62672782
0.075062975
1.0495723
0.70423031
0.74875849
0.19738698
-0.17378904
0.12524496
-0.1677455
-0.043647632
-0.055339344
-1.1406347
-0.014535696
-0.047446322
-0.2300155
-0.43859535
-0.31782192
-0.073680282
-0.29823118
0.0339857
-0.16035584
0.13852334
0.22070776
-0.3796218
-0.35639071
-0.12713346
-0.064989746
-0.12246674
0.053326219
0.41514799
-0.50476468
-0.14710772
-0.18674304
0.79889518
-1.0912405
0.17629042
-0.1185649
0.33704612
0.078991309
-0.093839966
-0.20041239
0.080522195
0.31914765
0.20141281
0.89032727
0.15171437
-0.043884933
0.27917895
-0.70316315
0.41020173
0.31409559
-0.030666217
-1.0738877
-0.047705192
0.1799362
-0.35497826
-0.37459773
-0.99578685
-0.13863187
-0.1697142
-0.12454208
-0.2022216
0.019612653
0.14924444
-0.44480786
0.2430883
0.17294298
-0.018731467
-0.13835406
-0.056623831
0.14933972
-0.016291581
-0.10987218
-0.36207575
0.72081017
-0.97433454
-0.40948164
-0.28745973
0.3121857
-0.8898595
0.2408583
0.18535896
0.4313854
-0.062760793
0.44035921
0.78709584
0.10184888
-0.23385532
0.361734
-0.46137702
0.10419311
0.024572251
-0.19549774
-0.53619373
-0.12197023
0.17008989
-0.2183314
-0.41587609
-0.78102708
-0.30680117
-0.33694822
0.0079421131
-0.31093115
0.2094624
0.14627181
-0.27869502
0.083856411
0.22696473
0.15858084
-0.16168307
-0.0076042148
-0.27794123
0.077872485
-0.18616839
-0.37212929
0.096947134
-0.70410049
0.17576046
-0.34104368
0.11772484
-0.17354091
0.35788286
0.57999063
-0.037155099
0.28937075
0.10082726
0.79254121
-0.0266553
0.016494034
0.5312019
-0.69994825
-0.22871923
0.23680609
-0.11119673
-0.18554251
0.046034366
-0.081016824
-0.30108848
-0.29667127
-0.41901726
-0.33731505
-0.41086933
-0.19323191
-0.24692188
-0.078054845
0.22231586
-0.096055597
-0.18972771
0.17893329
0.10228409
-0.22159383
0.032849535
0.021595987
-0.34989426
0.043946557
-0.0940741
0.3807452
-0.34274364
-0.044356275
-0.55380982
0.22098276
0.083063461
0.19126631
-0.040966123
0.47058851
0.33942145
0.12340396
0.58327228
-0.54363173
0.55756348
0.05882033
-0.56876183
0.25839707
0.354945
-0.43689129
-0.0760004
0.092599057
0.035160057
0.026655735
0.080981173
-0.61292827
0.074247666
-0.13741043
0.20660605
-0.15187709
-0.28018108
-0.0042979424
0.071674444
-0.3131837
0.13623565
0.084074564
-0.121135
0.033994049
-0.018495107
-0.42303097
-0.021359535
-1.4747218
-0.55946314
0.42392367
0.15092494
0.44986272
-0.22066672
0.14469188
-0.55050772
0.72086018
-0.1157717
0.29895893
-0.78267968
0.84276491
-0.25931612
0.53463686
0.32959819
-1.3001404
0.71971792
-0.61727029
-0.59304523
0.57458818
0.064213894
-0.4340255
-0.24312058
-0.2011462
-0.37875301
-0.53664356
-0.015481094
0.17669271
0.1119008
0.081432603
0.049825173
-0.29786816
0.30741048
0.13015172
-0.37350035
-0.033116836
-0.23809871
-0.62281525
-0.16589299
-0.13711481
0.61628568
-0.63669783
0.45001861
-0.39227143
1.1389505
0.3017135
-0.53593963
-0.82536304
0.25511619
0.24127921
0.24343339
0.44376951
0.61011779
-0.87270999
0.16555111
0.42996591
-0.90355068
0.35896868
-0.14153668
-0.27045655
1.2297692
0.034638405
-0.31080526
-0.32877824
-0.14201942
-0.01427816
0.076899983
-0.071670935
0.34707671
0.13009664
-0.11137079
-0.028068202
-0.238732
-0.14105079
0.0099982619
-0.40991178
-0.1568269
-0.42013574
0.10982517
0.19407403
-0.019674487
-0.863442
-0.60369545
0.79633927
-0.32842624
0.71110439
0.3545675
-0.35278141
0.47684684
0.29093626
0.29985699
0.078062959
0.83965886
0.50982153
-0.97089344
0.59015286
0.085565485
-0.81102711
0.5984984
0.14387713
-0.68123585
0.6661247
-0.1836471
-0.36973137
-0.29509911
-0.37846559
0.010806671
-0.25245169
-0.27153146
0.25766876
0.043894697
0.20100871
-0.0074914331
-0.2676141
-0.2876572
-0.28941849
0.037806153
-0.16687645
-0.18498336
-0.0087187132
-0.10005242
0.10481624
0.24378079
-0.70646477
0.22439323
-0.81587249
-0.42444736
0.12992221
0.038414035
0.60323471
0.53302813
0.0038369261
0.82013083
0.078892507
0.22941622
-0.69431055
0.28232911
-0.16061723
-0.28548685
0.71191841
0.56993091
-0.12572758
1.097442
-0.25652009
-0.3915213
-0.20259489
0.052461013
-0.14564638
-0.82510275
-0.15781251
0.25468618
0.63934404
-0.037800655
0.0019338491
0.10765733
-0.04265929
-0.2269244
0.40307721
-0.39109093
-0.043366686
-0.29477179
-0.43572602
-0.28634247
0.11747799
-1.0326329
0.6591962
-0.4479253
-0.22876221
0.29372367
0.04823273
0.52560496
0.85334355
0.83538949
1.098157
-0.7944901
0.35183209
-0.37865111
0.32771462
0.5912894
-0.076922558
-0.35424757
-0.21410319
0.61745822
1.0283027
-0.17182931
-0.55718535
-0.10736543
-0.19764173
-0.3726843
-0.43708596
-0.090441346
0.17629297
0.051775217
0.082415938
-0.061078969
-0.25040051
0.02771437
-0.17334317
-0.37160227
-0.0025027855
0.0212714
0.31424919
-0.52979273
-0.12574039
0.33635789
-0.13336655
0.11976005
-0.4407497
-0.21624616
0.1262323
0.59509003
0.2932747
-1.4475331
-0.10481054
0.054572761
-0.6266368
-0.58562189
0.50071537
-0.30878428
1.2085149
0.2515507
-0.25406563
-0.54064417
0.65380388
0.42578068
0.069416769
-0.028155847
-0.33025584
0.38929102
-0.58737779
0.061900493
-0.24628255
-0.30221108
0.2185709
0.17216273
0.019839898
-0.13487804
-0.080373995
-0.063201278
-0.81989616
-0.33993116
-0.051360577
0.59387928
-0.51745331
-0.07782457
-0.33855981
0.97274375
1.0899762
-0.43704227
0.076730989
0.5022288
0.32335857
-1.06979
-1.0677246
-0.35959139
-1.4240023
0.084735438
-0.94765955
1.0143975
-0.0068023624
1.2858013
-0.33066094
0.28249261
0.01398811
0.49125302
0.29465887
-0.11191178
-0.0070378357
-0.29495418
0.49732092
-0.957003
0.013297793
-0.17576456
-0.36685279
0.044061661
0.19005209
-0.30940053
-0.14348093
-0.086484797
-0.034686547
-0.95071483
-0.27513832
-0.40179721
-0.092409745
-0.35730436
-0.13689868
1.4839102
1.2572014
-1.4281614
-0.31376183
-0.85494047
0.22714923
0.29715145
-0.31386515
-1.723529
-0.19884208
-2.1947734
-0.44252232
-1.0929052
1.288072
-0.19888857
-0.25639257
0.54243648
0.21731597
-0.37171894
-0.027362019
-0.54545963
-0.00084735418
0.38735378
-0.040342476
0.0039756834
-0.24610274
0.18521662
-0.042052396
-0.37556723
-0.010294115
0.33982405
0.088871673
0.090578653
0.087359875
-0.41557494
-0.65431154
-0.10966319
-0.010533922
-1.2747132
-0.30911216
0.036679536
-0.016035261
1.061092
-1.0165882
-0.21778339
-0.8931278
-0.77250022
-0.1043733
-0.67148632
-0.39453876
-0.39013305
-1.043287
-0.88440096
-0.32644004
1.5774128
-0.057078212
0.85263592
-0.05296737
-0.84372383
-0.35484144
0.65939361
-0.47303694
0.13989034
-0.038594268
-0.14782219
-0.1352071
-0.99647081
0.010116824
0.041560207
-0.0035928888
0.19073224
-0.081403151
-0.24819124
-0.02620868
-0.48325688
-0.44073382
0.069605514
-0.21530253
-0.10493968
-0.50713354
0.00087641168
0.059751812
0.71214616
0.084771417
-0.92301393
0.6792025
-1.5108329
0.36075068
0.52204865
-0.68508327
0.020092098
-0.50008184
-0.98257345
-1.1354189
-0.48756626
1.4674717
-0.56852311
-1.1921805
-0.69956619
-0.27221832
-0.30614796
0.24357447
-0.31721392
0.10623293
0.43966648
-0.81851751
-0.92174363
-0.87681204
-0.31524834
-0.61003107
0.50736785
0.56730205
-0.023737844
-0.031040225
0.48969945
-0.48508114
-0.29194763
0.83395994
0.011881649
-0.15473413
-0.86600333
-0.47955304
-0.24252753
0.89001477
-0.53477418
0.035354916
0.89558172
-0.085740678
0.82966107
0.88272059
-0.6716162
-0.26368731
-1.1127561
-1.5657544
-0.93512374
0.14410144
0.9228037
0.3719812
-0.37578347
0.40151605
0.43115535
0.10411855
-0.45332196
0.34789526
-0.20829427
-0.53667402
-0.091352537
-0.13547109
0.20128259
-0.5736078
0.059294671
-0.28206822
0.41967127
-0.12764141
0.051882774
0.0085545322
0.33960736
-0.15842599
0.09214291
-0.29009241
-0.24132064
-0.93887383
0.053610779
-0.18823382
0.21445447
-0.1798587
0.13498028
1.0416944
-1.0757294
0.086678587
1.0265226
-0.078027971
-0.074131683
-0.86220366
0.25494468
0.30425003
0.56865215
-0.41866705
0.50621343
0.19769123
-0.6541909
0.3734836
0.15453175
0.10469676
0.85753441
0.20472223
-0.020411363
0.16387048
-0.45735583
-0.46727136
-0.30362576
-0.16773437
-0.024911841
0.22720709
-0.25934827
-0.17562206
-0.14520366
0.054798722
0.13913938
-0.064619258
0.16337769
-0.20328565
-0.52228355
-0.044427514
-0.26492241
-0.22519585
-0.37290752
0.43379843
0.66675645
-0.088653736
0.34357661
-0.37003642
1.0162404
0.08281976
-0.81148064
-0.10703076
-0.087787084
0.48676977
-0.081677996
0.28017938
-0.61949575
0.13650998
-0.35137892
0.022595026
0.57289714
0.78526264
-0.23408365
-0.18552248
0.14157936
-0.62036383
0.25755575
-0.26000845
-0.50815606
-0.023296585
0.45403343
-0.076578081
0.059311152
-0.21501757
-0.1669924
-0.1921543
0.27878067
0.16830696
-0.13099435
0.040286008
-0.027914938
-0.19883475
-0.82116812
-1.079829
-0.032114349
-0.071816519
0.23948888
0.34122163
0.54403853
-0.065892175
0.34838831
-0.066464499
0.27506563
-0.12177677
0.4067792
-0.28752884
0.24700014
0.38391015
-0.4998866
0.63626778
-0.0060305758
-0.072578683
0.098123655
0.07191959
-0.42405459
0.11846698
-0.24438527
0.28030148
-0.086251743
-0.35401982
-0.096602641
0.18729612
-0.19257174
0.039920691
-0.22795528
-0.17471619
0.034198899
-0.2731531
-0.33137435
-0.17847073
-0.17745149
0.068533689
-0.22904068
-0.22836827
0.11317725
0.6522789
-0.24663845
0.17817616
0.31351671
-0.023467926
0.45827532
0.27829885
-0.47748297
0.092048623
0.48223233
0.71846545
-0.58236772
0.58852762
0.46528947
-0.19580665
0.12016825
0.15890552
0.13102871
-0.52738601
-0.18175316
-0.29446346
0.053769618
-0.18921706
-0.0079028327
-0.61724883
-0.36521894
-0.072647698
-0.13837677
0.0085513312
0.21062191
-0.32052892
0.14991698
-0.028265947
-0.073986739
-0.22225459
-0.25259021
0.71680099
-0.017705217
0.068250842
-0.57000613
0.47242838
0.0030329977
0.72526032
0.26243749
0.015869441
0.41982606
-0.28523809
-0.74308294
-0.49991441
4.0155097e-05
0.11865992
0.21210715
0.43849885
-0.33741137
-0.43847993
0.47226134
-0.33914053
0.028633488
0.043957245
0.090840705
-0.092242293
-0.20100249
0.065015629
-0.37517118
-0.32261708
-0.14696416
-0.17820884
0.076790124
-0.22336069
-0.2362974
-0.061340451
-0.29136407
-0.073550873
0.017715059
-0.2347385
-0.34562153
-0.37265342
-0.35406396
-0.11377112
-0.074168503
-0.13037784
0.58361298
-0.72354722
-0.46768719
-0.22634146
-0.26920041
0.19759226
0.087988175
-0.51039678
0.13991377
-0.34989977
-0.34189212
0.44683543
0.79282665
-0.74038255
0.26552024
0.44310361
-0.055970907
0.044364966
0.48513544
0.50671399
-0.053028967
-0.27767944
-0.13010521
-0.066431426
0.46085396
-0.19598924
-0.16494842
-0.16659497
-0.47127619
-0.19211376
-0.22333568
-0.11996323
-0.26135257
-0.34499076
-0.25427315
-0.29299378
-0.36482728
0.05949435
-0.26938877
-0.16299506
-0.16866194
0.69887906
-0.35498592
-0.14481401
0.40315741
0.1018059
-0.32626137
0.33886921
-0.68884021
0.23810908
0.66908687
-0.38284704
0.52904832
0.48851466
-0.39604211
0.023384031
-0.5940215
-0.065162733
0.042169932
0.080170676
-0.35032827
0.007091715
-0.0094175739
-0.14060079
-0.30299032
-0.45906645
-0.30606356
-0.26215166
0.01552081
-0.30255803
-0.53017998
-0.045749601
-0.30588749
-0.051217485
-0.14236476
-0.59747469
-0.23241992
-0.10493082
0.83187878
0.13973154
-0.153616
-0.80628037
1.4781133
0.19195172
-0.30944112
0.4958601
-0.053352688
0.28594425
0.11528167
-1.2135502
-0.58620268
0.84046465
0.16480847
0.19131286
-0.72507238
0.45105183
-0.21628
0.96297288
-0.32490897
0.32638577
0.21603145
-0.84083992
-0.11472167
-0.2551285
-0.22571369
-0.13087229
-0.60457093
0.16967912
-0.1267689
0.030235635
-0.20381273
-0.1847772
-0.11014178
-0.21810806
-0.21910521
-0.2085451
-0.29579207
-0.30664012
0.026620528
-0.18480329
-0.34124187
-0.038709097
-0.07460618
-0.17409982
0.38582596
-0.010641133
-0.29809666
0.30653104
0.51859647
-0.45823655
0.22725974
0.2103069
-0.51469117
0.018414527
0.99865162
0.36369798
-0.11555761
0.092666611
0.86022538
-1.1282805
0.0019152639
-0.2599121
0.48515186
-0.083725892
-0.45215994
-0.49931997
-0.28737018
-0.42424899
-0.37127686
-0.18468358
0.051573031
-0.30822071
-0.27677602
-0.074804232
-0.32529107
0.072197989
-0.14968386
-0.42373878
-0.36630914
-0.34826314
-0.05232783
-0.29063645
0.079292551
1.0147409
0.65338403
0.54979718
0.08368779
0.75511485
-0.090633497
1.132164
0.92322785
1.0731111
0.23459165
0.07145822
0.98814261
0.53074616
-1.0535297
-0.11819386
0.56145489
-1.7229874
-0.260535
-0.1708535
0.179454
0.80418152
-0.19570391
-0.30267859
-0.064665444
-0.34722069
-0.23161869
-0.34835759
-0.32167792
0.41394591
-0.30591774
-0.14106755
0.14345548
-0.039306998
-0.21664478
-0.38373217
-0.10883123
-0.20294932
-0.21607201
0.25069678
-0.024588212
-0.052814312
-0.88993466
1.1432279
-1.0498351
-0.25662228
0.47525632
0.93592602
0.51035851
0.20458169
0.27552319
-0.63735145
1.0608819
-0.66311121
-0.40891033
-1.7279296
0.50392371
0.4985767
-0.77547532
-1.5185306
-0.5169611
0.3716546
1.032979
-0.086656049
-0.89480042
-0.76042271
-1.3266755
-0.43393022
-0.57000118
-0.35214251
-0.21109186
-0.38736716
0.037663084
-0.1672388
-0.78592557
-0.47508618
0.10728013
0.3102589
-0.24504219
-0.49509791
-0.23201814
-0.11728159
-0.27652103
3.4251456
0.608298
0.15251589
-1.1578648
2.9141123
0.17046519
1.3652002
-2.2410042
-1.3318797
-0.070272647
0.12050463
-1.513948
1.1220074
-0.033503603
0.032947943
-0.75613201
-0.017317548
0.16070729
0.050210986
-0.64404804
1.6773964
-0.12007
-0.15300009
0.10913267
0.4498052
-0.052170414
-0.37856171
0.051289346
-0.51753938
0.16814183
-0.1335424
-0.49083713
-0.3711085
-0.44891346
-1.6286151
2.32335
-0.25458339
-0.41191831
-0.91352773
-0.52068055
-0.35880464
-0.0099790143
0.64831358
-0.2420959
-0.91647172
0.67510319
0.39443281
-0.57369226
0.30584997
1.0603377
0.80977595
0.84936094
-0.83400464
1.2058276
0.65381211
0.80631447
-0.75910348
-1.8114916
0.12614827
0.49740428
0.30790767
0.82525653
-0.076458342
-0.28492415
-0.19357434
0.15524422
-0.38947368
-0.28263962
-0.61644274
0.23803012
-0.53484136
-0.048011217
-0.27843615
-0.57100552
-0.12237325
-0.20161037
-0.045859125
-0.52121061
-0.40595883
-0.38360968
-0.26730603
-0.33875135
1.6095718
-0.22862594
-0.10909435
-0.26600555
0.52552223
0.16142905
0.46785215
-1.1583591
-0.48701334
-0.4255704
0.38141996
-0.49500233
-0.318367
-0.48187745
0.2418569
-0.16742328
0.44578215
0.35183668
-0.016561322
0.022693129
0.99866176
-0.07040675
-0.29440534
0.109625
0.4720107
-0.33084953
-0.54272068
-0.16162507
-0.13827829
-0.38708329
-0.19048394
-0.15937257
-0.12136432
-0.44958216
-0.040838964
0.044894978
-0.41266584
-0.1605666
-0.77688402
-0.14726515
-0.05774878
0.11913799
-0.42172337
-0.19786942
-0.1742923
-0.22949758
0.33613175
0.6473729
0.2487154
0.46827531
-0.29468086
0.8349455
-0.53493088
0.18065272
0.16525826
0.36280838
-1.5517839
-0.086135857
-1.1993283
-0.16917071
-0.35441869
0.58473587
-0.33734486
-0.084696844
-0.20675997
-0.35928577
-0.30737662
0.069518134
-0.57196486
-0.59213442
-0.37082732
0.031830173
-0.090618916
-0.5291822
-0.016633695
-0.18484056
0.081654646
-0.18366455
0.016824823
-0.46185565
-0.073520102
0.076907024
0.40835649
-0.40037087
-0.22991285
-0.43640435
-0.15599929
-0.086095393
-0.19585767
0.29916739
0.15376619
-0.063878357
0.10545318
-0.079843298
-0.61369467
0.50706655
0.47463295
0.75108016
1.2724988
-0.018453751
-0.24058488
-0.16583806
-0.23672351
0.080499157
-0.21954395
0.099708758
-0.41023743
-0.63443613
-0.19378085
-0.5038169
-0.11082808
-0.18125583
0.07262402
-0.12265107
-0.58550847
0.13897441
-0.098405421
-0.97872978
-0.32442296
-0.091053449
0.03905011
-0.37510595
0.14384674
0.71734136
-0.63219464
-0.81956792
0.34360757
-0.43388954
0.19524257
0.3487711
0.084288351
0.1161029
0.033848144
-0.3435477
-0.38184971
0.028915267
-0.23771195
0.37575531
-0.095511965
-0.5195303
0.10889758
-0.23264875
-0.74989414
0.65004867
-0.0015274885
-0.37781617
-0.12246103
-0.24079126
0.079865627
-0.41121921
-0.31513733
-0.48420519
0.0012749606
0.045429084
-0.19585425
-0.53778726
-0.19762777
-0.16735068
-0.38588768
-0.17798771
0.020453742
-0.17179117
-0.28054518
-0.070979573
0.27273026
-0.74495941
-1.193486
0.0065132324
0.29872844
0.26368716
0.15778044
-0.24667536
0.34539643
0.19514745
-0.24776459
0.0085015167
0.94471949
0.40166411
0.18353342
-0.024574619
0.075447723
0.27530706
0.40225524
0.14077613
0.35984537
0.034139533
0.013906693
-0.14861363
-0.10967866
-0.082727537
0.12513207
-0.10472121
0.057700582
-0.30525997
0.026861466
-0.28660357
-0.56899381
-0.8593927
-0.30233333
-0.16324373
0.05555841
-0.049431473
-0.32992703
-0.29867157
-0.45991674
0.00078784843
0.28104383
-0.10769022
-0.18045558
0.098060668
-0.33822599
0.089094795
-0.27763361
-0.10003701
-0.042294741
0.30435774
0.022744291
-0.52423078
-0.33747682
-0.20140439
0.40391687
0.17197211
0.5105173
0.10752179
0.49834186
-0.49347359
0.11757896
-0.20404893
-0.015358627
-0.24131523
-0.25626281
-0.30944338
-0.17998156
-0.050227974
0.24973628
-0.096172705
-0.33849081
-0.0973709
-0.16970503
-0.29463801
-0.72599626
0.19109932
-0.10150506
-0.54008895
0.094430335
-0.012167941
-0.64822388
-0.70095915
-0.098199658
0.45519182
0.191361
-0.20842677
0.23905551
-0.47115582
0.20254754
0.19122048
-0.29892206
-0.22362748
-0.38428321
-0.42519808
0.091240823
0.42731416
0.31249189
0.55643117
0.28784925
-0.24589294
1.0489651
-0.24438255
-0.070672579
-0.1326737
-0.15050781
0.47492385
-0.1119456
-0.12629838
-0.25971144
-0.22442068
-0.10115013
-0.15967168
-0.0039824788
0.17779855
-0.083742268
-0.57018447
-0.097566567
-0.11615731
0.061879244
-0.050497219
-0.032643538
0.050120134
-0.18134442
-0.20112076
-0.034254551
-0.15557845
-0.14911613
0.28892827
0.075194016
0.35272211
0.17920347
-0.258751
-0.085210957
-0.73493785
-0.35342535
-0.26034659
0.12890925
-0.11387581
0.62369961
0.1232819
-0.29028869
0.50923848
-0.24450132
-0.06268242
0.022931837
-0.14548771
0.2730287
-0.15896931
-0.065009125
-0.23146862
-0.43357912
-0.11233437
0.025487388
0.014393717
0.18618338
0.16832365
-0.23299429
-0.069674917
-0.18375984
-0.54603165
-0.085092038
-0.08467567
0.19409993
-0.18420751
0.13844715
-0.009414182
0.23947707
-0.050353568
-0.051588409
-0.15661691
-0.19672383
0.33828145
-0.13363588
0.0044040373
-0.026757179
-0.63374138
0.21432562
0.071021132
0.17218713
0.2361885
-0.31456667
0.07874655
0.71444595
-0.096749455
-0.2114751
-0.13524592
0.012487987
-0.11814952
-0.12598914
0.031234559
-0.18571533
-0.50479668
-0.23281813
-0.30914569
-0.010183556
-0.13434696
0.11645769
-0.23854126
0.10985327
0.027826253
-0.0045689009
-0.04616306
-0.1529066
0.48643443
-0.56099528
0.16526057
0.73670787
-0.11868228
0.089959726
0.18741518
0.11256232
0.39693707
-0.17993754
-0.72099435
-0.11410718
0.38896471
-0.39120233
0.082096174
0.40261564
-0.14285859
0.10656117
-0.098630227
-0.27445769
0.45423025
-0.14496741
-0.18405187
0.021119684
-0.26805171
-0.1637616
-0.083538122
-0.20912771
-0.2502616
-0.20517848
-0.12870727
-0.019913895
-0.13226089
0.03187089
0.12095187
-0.176615
0.081175596
0.033201348
-0.25286007
-0.093312643
-0.1151631
0.25877544
0.25209627
-0.19678332
0.19556035
0.59751874
-0.22928986
0.18164568
-0.43200329
1.4049178
-0.06753514
0.024900462
-0.38284847
1.1606128
0.11611335
-0.14494342
0.42665753
-0.069306433
0.36886728
0.0096908212
0.42398366
-0.28188485
-0.17220634
0.0065156994
0.052204754
-0.27213314
-0.51515698
-0.084122315
-0.10315418
0.13165505
-0.11451576
0.24635777
-0.004597039
0.030202992
0.092011385
-0.01708746
-0.037920333
-0.21646567
-0.0097740665
-0.46400547
-0.10186622
0.043671042
-0.066919535
-1.4266394
0.25773978
0.29241312
0.41295686
-0.30791762
0.71144056
0.34111834
2.0278118
0.15567274
-0.38356805
-0.83284658
0.86468107
-0.19734116
0.4439548
0.27775726
-0.63161045
1.6863731
-0.2381283
0.041520968
1.526199
-0.36690339
0.011335668
-0.11644287
-0.3954362
0.26179108
-0.20791581
-0.15062477
0.16293079
0.13339102
0.20990483
-0.3324703
0.12088253
0.063257955
-0.28000981
0.11699957
-0.069217592
0.013222435
-0.5362646
-0.095004976
0.16349566
-0.35915032
-2.1055665
-0.1019216
0.22997372
-0.88902217
0.52064788
0.33010602
-0.32421759
1.2018871
-0.0028034539
-0.8370707
-0.2844561
0.77945077
0.33685756
0.2410313
0.43419451
-0.87363935
0.75069433
-0.053758807
0.099223793
1.8317416
-0.30906606
-0.012369931
-0.048663475
-0.70776057
0.0081952447
-0.12338948
-0.46210966
-0.48310512
-0.078978837
0.18952847
-0.0061963657
-0.017135184
0.19711471
0.13305154
-0.14739087
-0.18140514
0.21707232
-0.31245321
0.19774023
0.22985722
0.0066161407
-2.4619985
0.080615655
-0.26772839
-0.90856528
0.92318118
0.46041742
-0.47059435
0.34884304
0.60658842
0.49010679
-0.91608113
0.15479898
-0.53362232
0.16345403
-0.86808145
-0.50260973
1.370376
0.0047000023
0.46147519
1.2955317
-0.39800477
-0.27203983
-0.22083236
-0.58133328
-0.19157279
0.059968568
-0.21360877
0.12537779
0.01001604
0.69962329
0.25187382
0.095498145
-0.21224372
0.083626486
-2.0169444
-0.02324619
0.47543281
-0.21789284
0.21047629
0.7123431
0.0022387768
-0.63644874
0.5573169
-1.2333703
-0.30436307
0.65321517
-0.35647327
0.46385047
0.23216259
0.014079074
0.30766255
-0.22562109
-0.51733851
-0.52652258
0.45852426
-0.26574472
-0.20807374
0.83622456
-0.10306127
0.33212674
1.447318
-0.03484251
-0.12562403
0.08361946
-0.031426035
-0.068477564
-0.038592212
-0.37344363
-0.22160991
0.11303451
0.13539039
-0.01630554
-0.017906081
-0.24832101
-0.18050647
-0.11140198
-0.20156306
-0.10317285
-0.48359036
0.062739946
0.28048792
0.013477425
-0.88547814
-0.24184448
-1.0704077
-0.84428483
-0.018821089
-0.27450889
0.38000304
0.54636079
-0.19818085
0.13874327
0.04677755
-0.78703916
-0.29020503
0.35763955
-0.32684755
0.44776183
0.70989233
0.007682946
0.060931046
1.4552377
-0.30645749
-0.18182167
-0.079048701
0.0027222019
0.27706832
-0.20100209
0.07365422
-0.03992163
0.27919498
0.13490801
-0.11809854
-0.076767914
-0.35033402
-0.35989019
0.19620129
-0.032061588
-0.10550098
-0.16553791
-0.34050766
0.006446606
-0.20759489
-0.62933272
0.28850687
-0.61529928
-0.2645992
0.15257202
-0.75599438
0.096754335
-0.029678106
0.59731799
0.2052552
-0.30050457
-1.2380719
-0.32178846
0.33696902
-0.25432047
0.19783962
0.54771525
-0.14871509
-0.38979608
1.4940206
-0.10398274
-0.26366213
-0.33900163
0.14872095
-0.27176917
-0.12742466
0.27427661
-0.21725665
0.18168189
-0.02095245
-0.083580293
-0.0089031197
-0.3520093
-0.025315221
0.42951295
-0.023014437
-0.042235315
-0.28865749
-0.26641196
0.08920043
-0.38837716
-0.93927765
-0.15891725
-0.39167419
-0.22070222
0.056735512
-0.32567352
0.34784126
-0.39634228
-0.064764343
0.18729329
-0.027731098
-0.097387798
-0.4025358
0.4198961
0.3994171
0.49431223
0.14661348
-0.12677906
0.038548917
1.0979425
-0.42459726
-0.048000552
-0.16413735
-0.022978777
0.17296302
0.17300829
-0.16699547
0.27365908
-0.06568224
-0.068328999
-0.17774513
0.012997723
0.093782432
-0.076748036
-0.014430968
-0.077241629
-0.014059691
-0.37537962
-0.20125788
0.051379234
-0.66082644
-1.2662967
-0.13113149
-0.5606575
-0.073026113
0.19409949
0.0045014527
-0.038812209
-0.2768451
-0.048337147
-0.039791919
0.059955694
0.24414095
-0.30593184
0.020360531
0.37517294
0.58708614
0.1337927
-0.12033106
0.46335128
0.99093992
-0.0091635389
0.059940841
-0.064321503
-0.068565302
0.53992695
-0.096979745
0.032334805
0.13114485
-0.18963091
-0.019651771
-0.08014641
0.16637246
0.071870275
-0.19183502
-0.21467787
0.057284988
-0.042343359
-0.40576738
-0.42102027
-0.14365998
-0.7646718
-1.0065237
-0.29684269
-0.081933752
0.15120256
-0.098567285
-0.04646435
-0.030441433
0.0042196405
-0.30739975
-0.2358142
-0.056341033
0.35795978
-0.66529995
0.029405104
0.20476153
0.81082809
0.0015655675
0.19271044
-0.047228977
0.93981153
-0.16241223
-0.085248992
0.06085534
0.19701132
0.12194107
-0.14216475
0.071202829
-0.069745317
-0.34702331
0.1305443
-0.065478064
0.051844485
-0.30510172
-0.31496692
0.16526338
0.055545777
-0.11781536
-0.33467901
0.10811648
-0.10266565
-0.56809825
-1.1254033
-0.070551299
0.093056746
0.17668432
-0.56652379
-0.088577531
-0.26735225
0.3399733
0.32620057
0.27118036
-0.29150414
-0.077840216
-0.57516074
-0.17828836
0.68070138
0.99420482
0.4297477
0.030509913
-0.03325174
0.96845847
-0.20191413
-0.13796689
0.24391998
-0.0067711351
0.010486614
0.11592096
0.023912206
0.10578136
-0.45159766
-0.13163127
-0.022430971
-0.19062658
-0.26691249
-0.18190317
-0.40927818
-0.030155199
0.084228747
-0.047355905
-0.08492852
-0.29930881
0.1224738
0.32247621
-0.41632074
-0.035697389
-0.14432339
-0.0021403106
0.32380804
-0.011369606
-0.18226676
0.11553318
0.18051994
0.35374439
-0.12249226
0.32156774
0.13917111
0.034973949
-0.21360256
0.045251593
0.061168361
-0.67195994
-0.52262968
-0.11297843
0.003811866
-0.46892107
-0.26511937
0.10213379
-0.36527595
-0.2254224
0.0061755194
0.064442374
0.016025573
-0.19171822
-0.23600569
-0.079174109
-0.061522506
-0.17617925
-0.086642399
-0.14682904
0.2487939
0.025524367
-0.018787345
-1.1095139
0.41389859
0.15085787
-0.77178442
0.70484692
0.59161788
0.53107369
0.12462605
0.10859951
0.38729149
0.20789933
-0.4225491
0.49993077
-0.32884544
0.27461582
-0.019221859
-0.47102061
0.88005453
0.55430847
0.11575568
-0.62866378
-0.10670908
-0.018460909
-0.33720914
-0.13607243
0.080053933
-0.19409539
0.018416706
-0.1794102
-0.1929393
0.21229933
-0.062211957
-0.064978056
-0.10650201
-0.12068261
-0.33989644
-0.054256596
-0.18571968
-0.022233153
-0.18267334
-0.15973981
-0.96966201
0.52000964
0.022494912
-0.47119877
0.34011415
-0.09517853
0.04136046
0.352314
0.040061679
-0.11604526
0.08312168
0.39439365
0.13383436
-0.080312476
0.32632092
-0.10412256
-0.44450176
0.23971556
0.2947337
0.17296693
-0.26179382
0.02547464
0.16811383
-0.039517839
-0.31111848
-0.18154487
-0.033152595
-0.063517228
0.02277256
-0.015360679
0.17610291
-0.076739043
-0.081651434
-0.34482336
0.0086543867
-0.72629076
-0.33207527
-0.1307486
-0.0987873
0.045271128
0.10799143
-1.3021724
1.3873857
-1.0289593
0.51696306
0.88631797
0.0018003929
-0.42604521
-1.032365
-0.78467894
-0.1574427
-0.15037274
0.52348554
-0.83953965
0.24081896
0.62853217
-0.32544741
-0.31413221
-0.41504896
-0.17278111
-0.50421774
-0.68274277
0.22307725
-0.33713287
0.074164063
0.21620761
-0.44798726
0.35579884
-0.69656634
-1.0902117
-0.07438238
0.19399913
0.26963982
-0.83403575
0.3958846
0.22121806
-0.35409686
-0.37940353
-0.30819878
0.054772243
-0.21916609
0.10206581
-0.35054097
0.86297417
1.2110435
0.26544878
-0.50625014
0.003816694
0.30704165
0.24361838
-0.49204493
-0.0081829643
0.50523436
-0.31562912
-0.98530722
0.78407598
-0.30350375
0.51552987
0.41264215
-1.2366911
0.20359436
0.39678827
-0.4025895
-0.12729584
-0.12182297
-0.083261803
-0.087053888
-0.53416497
0.036099471
0.10495633
-0.86277324
-0.28060436
-0.073595896
0.1124412
0.098264314
-0.31112838
-0.024842946
-0.02888032
-0.079904169
-0.084019631
-0.36989293
-0.26642415
0.048110723
-0.18110771
2.1327472
0.40379542
0.56255603
1.962175
-0.57965827
0.49217337
0.55990887
-0.61367041
-0.68455547
-0.98963082
1.1182848
1.2069899
0.73685038
0.27143544
-1.1132712
2.0311019
-0.090653844
-0.13176189
0.38551998
-0.037972696
-0.17902225
-0.038140874
-0.17467096
0.0061173942
-0.74061412
0.038786706
0.0069841077
-0.2978662
-0.14797612
0.084090799
0.03650948
0.098998241
-0.049098976
-0.14868176
-0.54615676
-0.1817887
0.12404205
0.2198385
-0.71212554
-0.38451499
-0.15074079
-0.32185432
-0.71229059
0.61635292
0.62085301
0.29546741
-0.64184511
1.1386979
1.8156887
0.1900406
-0.60342574
1.4848866
1.1844273
0.41826007
-0.063131288
-2.5913289
-0.55174249
0.7053957
0.44388208
0.41106373
-1.2254273
-0.076945946
-0.08208894
-0.19963299
-0.089531906
0.44213176
0.16542009
-0.086458825
0.18694471
0.30642653
-0.34486964
0.09617766
-0.16254175
-0.077809744
-0.34196153
-2.0540533
0.036480453
0.27373338
-0.89455718
-0.32425904
-0.09644106
0.20541105
-1.5956243
0.64331061
0.042294171
0.19331938
0.40087181
0.14467476
0.33907327
2.0451794
0.30359617
-0.17253403
-0.18808462
0.69542617
-0.92926192
0.59318554
-1.2254144
-0.61360133
0.57335132
0.039906211
-0.96787179
1.997527
-0.18624604
0.044960268
0.22004415
-0.028371587
-0.42304751
0.16083774
0.29031447
-0.34968087
-0.27984199
-0.2312202
-0.24594529
0.094534725
-0.038045086
-0.14996837
-1.427647
0.010502792
-0.030248329
-0.49936169
-0.029717663
-0.081669547
0.011603472
1.2488437
0.015768606
0.70557529
-0.42188373
0.1264756
0.23072784
-0.21202436
-1.5332973
-0.30215192
0.11534902
0.86339009
0.25082549
-0.43438265
0.36378151
-0.035320397
-0.20689291
-0.53299212
-0.14774352
0.070982173
0.1436571
0.087639712
-0.11642703
-0.71173847
0.0071242321
-0.62830794
-0.24624516
-0.11724071
-3.0254786
0.053356051
0.13593762
0.094580695
-0.31114897
0.070160992
0.23970497
-0.19866039
-0.29262391
0.019084198
0.73854142
0.24780759
0.11003395
0.46060523
-0.50847441
-0.42269757
0.44108325
0.49783477
0.014790037
0.51790524
-1.3448455
-0.16558416
-0.34694946
0.34824759
-0.2681053
-0.6666804
0.25983486
-0.58148694
-0.39964107
-0.1299444
-0.53585988
-0.29342827
0.32185218
0.10787857
-0.076605566
-0.083033137
-0.36126783
-0.32678637
0.43022746
-0.37516394
-0.65824759
-0.17612238
0.34611997
0.24093102
0.31057772
-0.17635266
-0.26388481
0.088211142
-1.108611
-0.40788412
-0.24677995
-0.54200351
0.26315013
0.16004127
-0.15178204
-0.14901794
-0.46224809
-0.098893054
0.11485607
0.33419248
-0.34120563
0.58372086
0.078675002
0.19300844
-0.19552539
-0.25438073
0.12174294
0.49284172
-0.049691193
0.72232521
-0.11036195
0.5024333
0.41583818
0.29304254
-0.015639741
0.014174683
-0.12537572
-0.083371691
-0.19322272
-0.03053824
-0.15736741
-0.056083854
-0.7551797
-0.09248092
-0.059956767
0.039148845
0.110581
0.045879878
-0.29848239
0.022152863
-0.17952906
0.15815815
-0.22038086
-0.65349221
0.035017721
-0.55763441
-0.010605837
0.050451461
-0.3815003
-0.32423323
0.031645827
-0.0070320321
-0.48037651
-0.29564494
0.098064587
-0.46580905
0.39589137
0.2491706
0.2968545
-0.24765044
-0.15336947
0.31687063
-0.53553069
-0.26958176
0.12188789
-0.074510872
0.31302047
-0.34507418
-0.16937572
0.19841811
-0.14168385
-0.32278904
0.052184381
-0.22125883
-0.3700434
-0.048340514
-0.19317922
0.027521931
-0.37791145
-0.019806709
-0.35700467
-0.21525478
-0.11177266
-0.30051768
-0.23451398
0.070580937
-0.33088151
-0.53299683
-0.41256717
0.41371909
-0.6313234
0.023235118
0.30705765
-0.432042
0.13280293
-0.052283384
-0.1430978
0.32239491
0.31749544
0.045486238
-0.48585373
-0.14133529
0.4763822
0.78705019
0.25172049
0.22142959
0.021616098
-0.076637805
-0.11787619
-0.25766715
0.08471968
-0.75560242
-0.017053591
-0.045005579
-0.25593111
0.00077240926
-0.22435644
-0.027011545
-0.32939097
0.023430163
0.14636652
-0.037277322
-0.44574335
-0.53520685
0.10658856
0.087407
-0.24188156
-0.32891259
-0.098789923
-0.74215531
-0.013545056
0.63851255
0.15234834
-0.39017552
0.061116129
0.3416847
0.1136802
0.83665907
-0.56512773
0.78700858
0.17104571
0.0057775369
-0.47028652
0.19185755
-0.18967716
0.048253469
0.24437374
0.40173692
-0.14988101
-0.0037460071
-0.38054839
-0.14972012
-0.67627323
0.064276315
-0.25520131
0.011501382
-0.14568663
-0.13052367
-0.22594586
-0.29958922
-0.80777943
-0.072575465
0.20375197
0.086520739
-0.14179097
0.056340799
-0.20909376
-0.2245359
0.21539024
0.10157289
0.3024331
0.39939019
0.17206953
-0.20985797
0.17597172
0.41345906
-0.13380225
0.35881993
0.35538292
0.57481527
-0.53700542
-0.20408466
-0.43308076
-0.045131084
-0.20352241
-0.27998063
0.11156387
-0.47876057
-0.032307301
-0.057103697
-0.085184716
-0.32082811
-0.17924199
-0.20674248
-0.37665075
-0.23407634
-0.45110142
-0.21912791
0.035107791
-0.20206676
0.18283501
-0.26742467
0.15672491
0.0074144695
0.004029463
-0.2597678
0.19804336
0.062213607
-0.14870162
-0.77449948
-0.048115913
-0.17818019
-1.0899256
0.30804285
-0.2070906
-0.057153169
0.10351071
0.41663352
0.11000572
-0.39375532
1.0854148
0.80251825
0.38499364
-0.58045888
-0.031954899
0.21433054
-0.70673698
-0.062158991
0.012606218
-0.080592863
0.0062084724
-0.061579067
-0.03817394
-0.26032373
-0.25889567
0.031343877
-0.15719332
-0.032944027
0.092171408
0.06052589
-0.17643982
-0.2075461
-0.52077425
-0.09799052
-0.49958616
-0.21030678
-0.15884405
0.26514742
-0.059065625
-0.4190855
1.2897817
-0.80200428
0.22801793
-0.23316605
-0.24575305
0.03546435
0.48871624
-0.076836862
0.39752689
0.13449806
-0.25433344
0.31452775
0.56693834
0.54753137
-0.05054025
0.19263861
-0.92077452
-0.27312303
-0.19119839
0.12874235
0.17968786
0.15017247
0.03661757
-0.12315455
-0.1657175
0.1904618
-0.51383197
-0.32703978
-0.0076961531
-0.25898814
-0.080105372
0.017557373
-0.0042356239
-0.35655591
0.18144217
0.044264968
-0.069234587
0.21409914
0.094731063
0.031239983
-0.33677185
0.11677089
-0.60624778
-0.057385478
-0.11124929
-0.60967374
0.24198921
1.0408418
0.36456412
-0.025732009
0.16455577
-0.14275737
-0.54797632
1.1097091
-0.48344281
0.34744352
0.16414337
0.22610781
-0.48163903
0.075196087
-0.049123142
0.37946907
-0.02495726
-0.030561836
-0.2081878
-0.35707247
0.54635048
-0.32648045
-0.25007731
0.037869997
0.36521721
0.13695782
-0.01384649
-0.17927676
-0.18179205
0.16524193
-0.1543667
-0.19608532
-0.11985853
-0.36383218
0.25402448
0.0023052942
-0.29768336
-0.56740981
0.37306976
-0.024735624
0.2704677
0.34196216
0.16810594
-0.27425694
0.025794588
0.40163559
-0.7125181
-0.019634562
0.77529126
-0.14198662
-0.030710738
-0.21145934
0.85566127
-0.33710489
-0.43823996
0.4587135
0.52832311
-0.010139116
-0.16443214
-0.36462423
-0.084237963
0.19849464
-0.35475802
-0.18868123
0.057511151
-0.050343629
-0.13299143
-0.23875879
-0.18916297
0.16674802
-0.38920587
0.4963761
0.0081373863
-0.18177326
-0.025897523
-0.19426505
0.37299132
-0.0048782262
-0.87040788
0.279394
-0.012712882
-0.55145013
0.02034279
0.11916137
-0.6217854
1.2237455
0.79532897
0.13084452
0.45811301
0.75603473
0.14185376
0.52709943
1.0078487
-0.28553769
-0.29423475
-0.35778177
0.23888046
0.046068717
0.34908876
-0.23807916
0.32760188
-0.38593563
-0.68228453
-0.28162906
0.2649264
-0.13818432
-0.24430245
0.14141685
-0.078636587
0.091346309
0.25928211
-0.15709344
0.11872455
-0.029017614
-0.041495282
-0.2786364
-0.050892044
-0.08425869
-0.23066033
-0.86029327
-0.70003003
-0.30041459
-0.84237504
0.55753207
0.19776814
-0.69989049
0.58283091
0.4249005
0.22624673
-0.03955543
0.12973315
-0.047984269
0.3247202
-0.75568938
-0.81031448
-0.61082715
-0.36060026
-0.5325011
0.60962099
-0.19415016
-0.41562498
-0.011017747
0.24411662
-0.0076546492
0.029074999
-0.171627
-0.24795198
0.28644565
-0.26790377
0.36603892
-0.061501283
-0.17536065
-0.11666705
-0.18580131
-0.40035465
-0.22118509
-0.079714432
-0.03027465
-0.35798463
0.71046561
-1.3184807
0.36855233
-1.3724645
-1.530175
0.84948295
-0.39760002
-0.64501888
0.31703863
0.33487302
-0.4465436
0.77598959
-0.35779408
-0.6757462
0.9595865
-2.4498925
0.011242308
1.9683896
0.13907264
-1.0884941
0.65465635
0.0092640761
0.10532059
0.12905747
-0.26849049
-1.0135005
0.10274098
0.30358768
-0.54382735
0.32557622
-0.23259231
-0.084877662
0.014026839
-0.43515518
-0.24732476
1.3604131
0.17971723
-0.30741644
-1.4185883
-0.14499587
-0.26509398
0.76015717
-1.0472603
0.44153881
0.11755374
1.372263
-0.90466428
1.2594413
-1.0659921
0.79949677
-0.13535933
0.58226013
-0.16608173
0.692788
0.18140304
0.74590534
0.70632833
1.0137944
1.4231684
0.49427596
0.23341618
0.018723268
0.090198204
0.16497247
-0.11892218
0.39535651
-0.30636778
0.11522558
0.42046076
-0.35719627
0.24889933
-0.25263131
-0.2808505
-0.067311913
-0.29432523
-0.025000505
-0.70839977
-0.0069040172
0.040005222
-0.095531173
-0.084883876
-0.098319411
-0.012508616
-0.31505617
0.41289973
-0.14716221
0.78049821
0.18257111
-0.42196944
0.60071546
-0.14440913
0.30202177
0.80145127
0.21030354
0.50689244
-0.33803189
0.63576716
0.92978895
0.11973497
-0.30813476
0.57914406
0.5350275
0.41190445
-0.13555484
0.17383666
-0.069533788
0.29198894
-1.1701306
0.15765065
-0.16720727
0.3711625
0.17091735
-0.32424858
-0.13649833
-0.47876459
-0.21900508
-0.26381218
-0.45847917
-0.16409333
-0.36141521
0.29187608
-0.26977044
-0.5964582
1.8861529
-0.67624295
-1.137568
-0.18404587
0.65600336
0.084229052
-0.48442119
-0.63587481
-1.2468947
-1.0109501
-0.078521907
0.76044571
0.37211516
-0.27458909
0.012938276
1.0689911
0.038534939
0.11818399
0.49052811
-0.10005981
-1.3725506
-0.11832793
-0.038969345
0.12715259
-0.30586672
-0.22844973
0.31168476
-0.54819888
-0.35756966
0.36656141
-0.14760461
0.07958778
0.22614758
0.25738782
-0.45794708
-0.74936402
0.035123914
0.036086146
-0.8593359
0.0036619161
-0.38030708
1.300759
-0.86705929
-0.33446145
-0.90208626
0.77346969
-0.47449651
-0.011914251
0.59935278
-0.18026721
-0.34220484
1.4097255
-0.075245187
0.642784
-0.19810508
0.08478725
0.051486395
0.65321791
-0.36938894
0.25273362
-0.19098611
-1.2101824
-0.091403112
-0.1477989
-0.12601741
-0.065532066
-0.30504978
0.18735397
-0.26719472
-0.06992159
0.080195211
-0.23747821
-0.051525593
-0.34642953
0.038353741
-0.25623897
0.1817591
-0.052382592
0.19176847
-0.44777453
0.19426765
-0.18417075
0.50065178
-0.016237617
0.51879299
0.48162425
0.72395366
-0.29736105
0.2042198
-0.10549091
-0.25463003
-0.44812629
-0.46998501
0.24738595
0.19793497
-0.18346286
0.10156706
0.29478973
-0.99160564
0.94384354
0.40736243
0.05459898
-0.18690394
0.19974601
-0.071367256
-0.0062351516
-0.18795411
0.15445445
9.3888943e-05
-0.15881273
0.039491553
-0.38702756
-0.065535307
-0.044519242
-0.37207615
-0.19607459
-0.19878918
0.549209
-0.11310082
-0.24743114
-0.041895196
0.23638962
-0.0093570258
-0.3537944
0.27898309
0.10951798
0.31008071
-0.18728712
-0.0068926788
0.70689034
0.56988806
-0.17745373
-0.67297
0.047390204
-0.14261112
-0.48414254
0.3662571
0.50364971
0.10436318
-0.67298746
-0.098443925
0.49713758
0.10735559
-0.29651564
0.15795055
-0.13471217
0.087489031
0.0084917797
-0.1277526
0.16209236
0.13616847
-0.32170951
-0.34270078
-0.11586789
-0.17076397
-0.019320574
-0.12555857
0.023694644
0.35077721
-0.062968791
0.070340499
-0.014156645
-0.24821323
-0.031094637
-0.51621622
-0.15811826
-0.4065682
-0.1762832
-0.29211348
0.045883961
0.18713078
0.33532399
-0.92631012
-0.43213841
-0.45260155
-0.013184965
1.4871035
0.046444505
0.34043714
0.1097055
-0.13690594
0.5078361
-0.1235934
0.089447543
-0.0090164281
-0.060776163
0.12222902
0.040104546
0.0087909335
-0.19486435
-0.52104509
-0.30452392
-0.13946486
0.34068614
-0.071877569
-0.035752207
-0.065632664
-0.25394332
-0.05774527
0.26980287
0.035465997
-0.17145771
0.33158821
-0.080462329
-0.31360576
-0.16303958
-0.18997896
0.78098208
0.39586985
-0.080800101
-0.13480616
-0.59213829
1.1576099
-0.82422936
-0.24685602
0.24080175
-0.17885192
0.066224702
-0.23990437
0.50645846
-0.37617674
0.1145771
0.2086468
0.41684937
-0.63424391
0.15922999
0.1333582
-0.14834169
-0.18810461
0.04447896
-0.049754806
-0.18308266
-0.10903236
-0.040250525
-0.27397546
0.077109024
-0.28604847
-0.14112462
0.078151032
0.21277268
0.14715742
-0.19331446
-0.11163585
-0.6687153
0.037470963
-0.051352788
0.59413266
0.25627744
0.024880569
-0.56961507
-0.036088649
-0.018587057
-0.086011797
-0.41836274
0.0067233061
0.45659474
-0.12235393
0.093070574
0.51867521
0.032688685
0.22880955
-0.15743271
0.23876889
-0.33368769
-0.13450123
-0.25824195
0.15050569
-0.22707908
-0.23740195
-0.39420763
-0.26814961
0.11481077
-0.18410198
-0.26763275
-0.23278289
-0.17420198
-0.27167699
-0.1336229
-0.17272075
-0.10667616
-0.10080446
0.062105611
-0.17960367
-0.16913898
0.0032578602
-0.028695084
0.0028306933
-0.48055518
0.019390482
-0.10175607
-0.018554181
0.13068683
-0.16095608
0.012751388
-0.10367268
-0.21622501
-0.10486674
-0.057842992
-0.2258371
0.1573714
0.12122959
0.17403053
-0.0034802291
-0.27401197
0.14205123
-0.13033684
0.085914835
0.1936949
-0.1136209
-0.10204819
-0.053752527
-0.04276026
-0.34423187
-0.095089674
-0.28031379
-0.21015099
-0.2254595
-0.090503044
-0.20502149
-0.14903866
-0.36116886
-0.21801831
0.016325321
-0.095130377
-0.2506257
-0.25771511
-0.25176445
-0.11822575
-0.072880551
-0.068937108
0.026772063
-0.18935882
-0.052281573
0.13235825
-0.29665306
-0.14554051
-0.19795212
0.12041994
0.38545153
-0.57498449
0.19441617
0.070456259
-0.12828663
-0.046371333
-0.11001533
0.058534015
0.16300982
0.069456339
0.01504837
-0.27647394
-0.13376833
0.12020876
-0.047051493
-0.23159865
-0.052287564
-0.49997523
-0.0086009065
-0.22581846
-0.0058481758
-0.22776072
-0.081306852
-0.34864897
-0.072711945
-0.13969538
-0.093502611
-0.15946059
-0.76309031
-0.27540463
-0.11465119
-0.051706281
-0.32957131
-0.146547
0.44824639
-0.36396754
0.28669444
0.27222937
0.23143984
-0.077293113
-0.2622242
-0.10594451
-0.52223182
0.20502338
0.37496215
0.32943657
0.051003911
0.52256632
-0.55979627
-0.019153552
-0.066212684
0.51096874
-0.21096113
-0.30066782
-0.3494795
-0.22126925
-0.62372243
-0.41027677
-0.44333795
-0.075252451
-0.1283412
-0.4254224
-0.046129368
-0.24188492
-0.11384076
-0.085826658
0.26694125
-0.35485485
-0.13735338
0.20457777
0.12897564
-0.2192588
0.30923849
-0.61295009
0.35489103
0.36472616
-0.63548678
0.56702125
-0.32318684
0.81540179
0.011094055
0.032672275
0.591066
-0.19786331
0.2162143
-0.55673343
0.088967286
0.36197117
-0.64261115
-0.061295334
-0.28111506
0.08226075
-0.031011611
0.011911144
-0.55226099
-0.3711994
-0.34526247
-0.23796181
-0.34384081
-0.47577348
0.2606301
0.02238174
-0.51406562
-0.38740703
-0.26335713
-0.010773778
-0.089033216
0.031547572
-0.083120607
0.02170728
-0.067523703
0.13503201
-0.30392954
-0.043963335
-0.54969609
0.042704951
-0.24376258
0.092563339
0.19151206
-0.47840115
-0.75069833
0.19386774
-0.19295275
-0.61054409
-0.42210174
0.65621555
0.38919413
0.24961109
-0.24463503
-0.30943021
0.74255174
-0.18269439
-0.34843257
1.1137154
-0.30807239
0.010861934
-0.29301667
-0.64154416
-0.3679018
-0.14305294
-0.52334815
-0.20860176
-0.056986082
0.22415738
-0.099188678
-0.02715384
0.10289448
0.096744239
0.060264673
-0.4225964
0.032021496
-0.12436223
-0.15929531
0.078932941
-0.77008033
-1.8026778
0.99252862
0.82607436
1.6599978
0.42464542
-0.9310075
-1.394874
0.097366758
0.073201999
-1.2776431
1.0111805
0.029374739
-0.039572254
0.01305795
2.0946071
1.9072809
1.892662
-0.19838467
0.21711722
-1.3126487
-0.34388396
-0.1317991
0.20414349
0.31784916
-0.25134039
-0.3765721
-0.51204151
0.0033982152
0.10432983
-0.42769137
-0.178629
-0.075501554
-0.39095584
0.30659711
0.3001571
0.074360661
9.2293121e-05
-0.29754078
-0.082404792
-0.74204338
-0.99153399
0.94505948
0.95740557
-0.38826749
-0.42073247
-0.64337206
-0.5591408
0.50451392
-0.093118049
-0.13019422
0.20763387
0.53708243
0.31664786
0.14397435
-0.020188976
2.0973837
-0.96004528
-0.12766048
0.32992855
0.109475
-0.4819797
0.0058242027
-0.33357745
-0.70802182
-0.4508864
-0.7617262
0.099948555
-0.052715857
-0.51203775
-0.38564268
-0.0061894171
0.042140838
-0.096723057
-0.22725946
-0.11573186
0.5887447
-0.50937289
-0.53729564
0.87628585
-0.35643178
-0.011241524
0.02025754
2.0516708
0.42392308
-0.3876037
1.6911423
0.092116632
-0.068268582
3.3561654
1.0961566
0.7524901
1.2398313
-0.38517362
1.0732672
-0.066936858
0.56926143
0.5281927
3.9776802
-2.8550611
0.81611115
-0.058730785
-1.0422206
0.15910371
-0.1479322
-0.13179581
0.32851255
-0.4417786
0.10809448
0.49089387
-0.69445407
0.048027195
-0.83248615
-0.46043989
-0.024344554
-0.66592252
-0.28159833
0.46147788
0.49086988
0.096847184
-0.26682186
-0.56799126
-0.34721357
-0.5134241
1.4550853
-0.68589765
-0.6994856
2.4610529
-0.57030779
1.516755
0.60749334
-1.8289733
0.27187315
-1.1304357
1.868199
0.36498132
0.57600534
-0.1247822
-1.1420933
-0.2926012
-0.54170936
0.11810282
0.53090936
-0.27749443
0.00044735623
0.14931087
-0.26434258
0.46144643
-0.10384834
0.2720443
0.32495603
-0.87616307
-0.069838323
0.1107122
0.1431825
0.44568163
0.17842782
-0.32679337
-3.463563
0.30082595
0.23582345
-0.59327441
-0.24246056
0.29166159
-0.18897776
0.41582
0.17354383
-0.54714274
-0.37801644
0.045007065
-0.079770677
-0.0382674
-0.51329333
-0.48640555
0.28455338
-0.2978093
-0.74729729
0.2867839
0.049390864
-1.0282046
0.10082587
0.051960617
-0.11846131
0.047456708
0.15690435
0.53977984
0.23201887
-0.84157622
-0.98783231
-0.046430983
0.41458219
-0.64444643
-0.16809408
0.16329041
0.63356328
0.668522
-0.4834069
0.3703337
0.6385023
-4.2058115
-0.25647545
-0.035744455
0.44019961
0.43211865
0.6203711
-0.62867022
-0.030571582
-0.094201639
0.051166352
0.59605241
-0.094771154
-0.12395979
-0.31410447
0.3613382
0.0078952247
-0.46404293
0.18731424
0.29740924
0.23334576
-0.063110158
-0.059957545
-0.19238646
-0.46103477
-0.0020801155
0.17162105
0.1049638
-0.00087495294
-0.26477209
-0.086879492
-0.13342871
0.11988088
0.046383988
0.25032935
-0.025271378
-0.53325164
-0.011142018
-0.0010925997
0.15176068
0.30811957
-0.21502532
-0.52315795
-0.14292236
-0.26039985
0.14644291
-0.37359601
0.09031792
-2.154747
0.071539365
0.68908024
0.17204015
0.41778919
-0.10990497
0.15599002
-0.097729973
0.24541432
-0.54124075
-0.01342185
0.0027962665
0.50844747
-0.08546824
0.45819995
0.56731266
-0.11444622
0.4806726
0.11358387
-0.072978385
-0.10392842
0.12542157
-0.019704109
-0.037191592
-0.16731618
0.065683872
0.16092548
0.12009107
-0.19923201
0.11614712
-0.34516537
-0.3353737
0.087640211
-0.048423324
-0.023592822
-0.17112863
0.068186015
-0.35923594
-0.51638812
-0.33796287
-0.31918341
-1.3364414
-0.21540776
0.19001266
-0.04976707
-0.011722283
-0.16021007
-0.14610402
-0.27781379
0.02662169
-0.30319709
-0.19946937
-0.26126063
0.079403311
0.10368252
0.15775965
0.26171842
0.27672067
-0.17476444
-0.21407731
0.54498875
0.025412966
-0.098734789
-0.14438725
-0.27619538
-0.52791601
0.23751993
-0.13811609
-0.4587729
-0.290333
-0.38724566
0.055127721
0.20636834
-0.20108765
0.26801467
-0.12097099
-0.59737152
-0.25503427
-0.38048938
-0.43300807
0.023452768
-0.12138856
-0.04616794
-0.51060659
-0.53268909
-0.76337975
-0.046543628
0.2033944
0.14145786
-0.16793351
0.0028371259
0.26407832
0.33841136
-0.086076885
0.1628949
0.077071317
-0.034276184
0.11461479
0.16665567
0.23660776
-0.13813287
0.28942731
-0.32500651
-0.050376419
-0.11744564
-0.15794234
-0.23843494
-0.31980917
-0.054474816
-0.026500661
-0.0130703
-0.062240835
-0.20933151
-0.1431677
-0.074404337
-0.31749609
-0.21205182
-0.35800636
-0.22710876
-0.052053921
-0.27480194
-0.17610973
-0.11110082
-0.22763933
0.61576486
0.043131128
-0.081965119
-0.22879708
-0.18231893
0.20618176
0.12105726
-0.25222743
-0.13671811
0.13481641
-0.081816807
-0.48171797
0.23221555
0.0055793729
-0.0059303846
0.071829371
0.10863547
0.19007282
0.024672344
-0.50440681
0.067365885
-0.01012388
-0.20814185
-0.15289481
-0.53816122
-0.20940375
-0.020885285
-0.31455022
0.080839179
0.085146919
-0.018590685
-0.048133228
-0.19552979
0.21301946
-0.24318135
-0.048476014
-0.11563057
-0.53903985
0.035946976
-0.2700637
0.30049592
0.24583769
-0.30727988
-0.08795692
0.057042789
0.13822338
0.45399579
-0.28981751
-0.31662285
-0.11029961
-0.17558751
0.17464182
-0.18324842
0.18331555
-0.10756848
0.12158559
-0.3542465
0.19345888
0.18042751
-0.29692578
-0.21507999
0.15876642
-0.15364026
-0.24080881
-0.028993618
-0.56144732
-0.040048793
-0.042955112
-0.30626789
-0.064220473
-0.04789789
0.10821298
0.027884321
-0.16673979
0.034936015
-0.25289923
-0.24342102
-0.23582099
-0.12254881
-0.11048001
0.010720458
0.18960774
0.55930883
0.30844957
0.020544594
0.47207296
-0.096805632
0.32231846
-0.035460893
-0.48392737
-0.24869454
0.26937634
0.3228063
0.16312751
0.43102843
-0.70349604
-0.21120465
0.04339654
-0.14551064
0.41082087
0.44913664
-0.37186104
-0.17471445
-0.32705292
-0.40346777
0.032907691
-0.26371345
-0.25309759
0.10263835
-0.22793771
0.054559477
-0.22598945
-0.17420608
-0.19745138
0.064503118
-0.10688577
0.071009152
-0.11844174
-0.12611629
0.12143119
0.11666582
-0.16510633
0.12285854
1.2815031
-0.34764472
0.60436326
0.28743851
-0.31901595
0.017286763
0.26513389
-0.76148361
-0.54584128
0.12864017
0.53689313
-0.18882445
0.35493302
-0.23017108
0.39925927
-0.28237858
-0.14978352
0.18389221
0.14347333
-0.56547797
0.0021952065
-0.067516983
-0.086715385
-0.055549003
-0.40789089
-0.12011661
0.055626497
-0.16987525
0.069009617
-0.044256534
-0.074543737
0.12870033
-0.21575956
-0.074422628
-0.31781095
-0.18345505
-0.11337113
0.056240309
0.015036028
-0.17697223
-0.35338083
1.5129256
-0.045147158
-0.63760126
0.077094629
-0.32607672
-0.039085515
0.69394624
-0.52872437
-0.48230699
0.69018322
1.0072205
0.0051011313
0.058513116
0.14373393
-0.067075722
-0.55276155
0.369535
0.30926147
0.3815245
-0.75627691
-0.18465587
-0.17288919
0.21338324
-0.41256914
-0.39663747
-0.065769345
0.014433667
-0.15684997
0.094411001
-0.21980925
-0.086875446
0.050717194
-0.057827953
-0.20674592
-0.18563136
-0.058985393
-0.094290607
0.0089450097
-0.2779631
-0.4497878
0.35099059
1.7681438
0.3297886
0.095607616
0.16961388
-0.55408764
0.16136692
0.5127508
-0.81448859
-0.30042085
0.38159803
1.0808226
-0.22811429
0.64401495
0.41882092
0.23968416
-0.13857001
-0.62636119
0.3529126
-0.79957879
-1.3012266
-0.20590112
-0.49513689
-0.18756129
-0.29359844
-0.3724772
-0.096993133
0.021806711
-0.37875348
0.3790735
-0.39594111
0.07927496
-0.21629363
-0.015968528
0.069450587
-0.023906676
0.15352018
-0.18926358
0.4814817
0.1552038
-0.3026467
-0.053731818
3.482686
1.079409
0.5756259
0.14980316
-0.87999326
0.11449704
1.6190306
-0.86852151
-0.75098956
1.2724634
1.9334142
0.35669386
0.9950462
-0.34731895
0.13824667
2.3296535
-2.8669114
0.1368632
0.66920823
-2.0448163
-0.21602763
-0.19615872
0.067925811
-0.13544145
-0.072494693
-0.49182934
-0.47766435
0.28702113
-0.22344707
-0.61978102
-0.46393934
-0.29772219
-0.46224988
-0.045200646
-0.085036471
0.0067166677
-0.29076251
-0.055838939
-0.40990618
-0.53737211
2.3894548
2.8932922
-0.51408815
0.86259335
0.14740324
0.26377249
0.73145509
1.2972013
0.24517089
0.010112067
0.4731093
1.8122687
0.47932923
0.59020442
0.45155966
-1.098639
-0.77782184
-1.6074802
0.21308036
0.34619442
-2.3643727
-0.55070359
-0.1723357
0.67628515
-0.085637353
0.26392257
-0.14863501
-0.54629183
0.7370919
-0.0062281364
-0.61358744
-0.37763616
0.02279312
-0.093924828
-0.34371033
0.2071142
0.29075733
0.11939573
-0.53304434
-0.27352682
-0.24731147
0.028707849
3.1309235
-0.35878903
-0.31783152
-0.6689136
0.22481057
1.2764105
0.57073152
-1.0943443
-0.17436583
0.71375734
1.0935603
-0.41610792
0.74952894
0.22108252
-2.6851461
0.19319962
-0.94647408
0.11319746
-0.53794646
-1.3302456
-0.59907162
-0.41106826
-0.0008447899
0.17761706
-1.0666151
-0.27913478
-0.47226161
0.95165396
-0.14075331
-0.68733203
-0.585159
-0.23792061
-0.81493711
-0.54182196
1.8067465
-0.023164041
0.3756775
-0.38132909
-0.56776685
-0.53871614
1.7975998
1.79539
0.19670533
-0.10699713
0.077973232
0.38689494
-0.25692099
0.39031008
0.08834482
-0.11020499
0.44841048
1.3772316
0.91291308
0.020089433
0.48574516
-0.27347547
-0.72561377
-1.0593362
-0.1496951
0.1316063
-1.3562077
-0.12933062
-0.44317397
0.23150998
0.27624798
-0.78759009
-0.27568784
0.08718425
-0.15865152
0.32835147
-0.13455269
-0.12702502
-0.19433735
-0.39009073
-0.14321202
0.26567027
0.15767476
0.41001526
-0.092265889
-0.32039922
-0.015225582
-0.54090786
1.4771692
0.48995093
0.10932247
-0.45808429
-0.07519839
0.40502077
0.86357737
-0.41346985
0.2848396
1.1915221
0.7548666
0.71310282
-0.38983113
0.10538848
-0.081817597
-0.86736959
-0.4101598
0.042690851
0.18001409
-1.158674
-0.03959544
-0.29249704
-0.24709949
0.12308124
0.16666804
-0.39174518
-0.16368999
0.05478527
-0.11067642
-0.22937804
-0.1810187
-0.085527606
-0.2306549
-0.041712329
-0.057172887
0.11744727
-0.082709305
-0.25579551
-0.25329018
0.070351198
0.1642281
0.55024534
0.15377587
0.45445785
-0.43950903
0.09219265
-0.013085609
0.46158966
0.22129564
-0.13659793
0.39409301
0.43524063
0.64118302
0.046788357
0.30063918
0.16942164
-0.42285824
-0.78921854
0.15542024
-0.2308493
-0.13364324
-0.15036525
0.049269348
-0.072244227
0.1878579
-0.68266368
0.017529687
-0.04690671
-0.0096119111
-0.17906773
-0.1464382
-0.29900843
-0.051831715
-0.37672129
0.0049190731
0.27872962
-0.2068917
-0.0364816
-0.36553422
0.13170625
0.1306809
-0.4004963
0.33407119
-0.27205941
0.11257727
-0.40982768
0.31710237
0.23694354
-0.26748887
-0.22497255
0.27590451
-0.047170352
0.25555354
0.59489918
0.42108679
-0.15791515
-0.078429654
-0.14491057
-0.12240574
-0.41386473
-0.042614732
-0.34124169
-0.078080401
-0.15259062
-0.021957139
0.12291917
-0.25509346
-0.053546168
0.040911105
-0.35110319
-0.095040582
-0.034022503
0.079327121
-0.09755338
-0.69458228
-0.11664455
0.28141811
0.046680551
-0.27307233
0.090474822
-0.043435007
-0.056292843
-0.4571532
-0.17751735
0.0048513184
-0.26762429
-0.60443246
0.13149522
0.25503588
-0.37608194
0.23926283
0.20565067
0.54878497
-0.0029929229
0.3523829
0.21313359
-0.087413527
0.29380277
0.33025014
-0.31269771
-0.32843459
-0.13149616
-0.14327143
0.19198813
-0.11688992
-0.15322554
0.17266157
-0.37207144
-0.10277724
-0.026402343
-0.47543415
-0.14979488
-0.093848646
-0.085631967
-0.15165612
-0.41431347
0.013503238
-0.31528038
-0.01206056
-0.19013891
0.38009378
0.071912132
-0.2634618
0.077385046
0.3868995
0.11549371
-0.14431632
-0.037903085
-0.087101974
-0.095137335
0.2683326
-0.23670049
0.022657834
0.16624463
0.27965078
0.47413251
-0.041040149
0.38629198
-0.36702237
0.066681154
-0.36505246
-0.17518662
-0.29206848
0.10105602
-0.14482516
-0.1123943
-0.34538397
-0.017429033
-0.1782243
-0.23898876
-0.091907203
-0.22298051
-0.24808209
-0.19164474
-0.017213808
-0.15436034
-0.028943745
-0.077127129
-0.05192437
-0.2110624
0.1195683
-0.014427551
-0.1753985
-0.10521704
0.48428914
-0.45112869
-0.2596913
-0.033667468
-0.084232435
0.11726227
0.4349229
0.29197931
0.43073207
-0.45237771
-0.57676327
-0.059707679
0.27200061
0.7666496
0.45316669
-0.51253617
0.28421012
-0.0088002784
0.1544124
0.01518854
0.61706954
-0.08189363
-0.36256596
-0.25144777
-0.077185676
0.1762782
-0.21085
-0.37650621
0.059547786
-0.023672953
0.13507207
0.024275847
-0.12001713
-0.39195606
-0.064145446
0.041973315
-0.41851914
-0.20431283
-0.63708812
-0.1262159
-0.14662144
-1.2744126
-0.2070353
-0.45727786
-0.16557381
-1.0670695
0.33166739
0.97515869
0.36320549
-0.36660576
0.10031887
0.21100591
-0.55463332
-0.47802246
-0.35196215
0.089215323
0.27276781
0.16979392
0.90031666
0.24325572
-0.27586114
-0.24418986
-0.2894032
-0.39861238
-0.4112727
-0.13243727
-0.03418085
-0.092321232
-0.29649457
-0.25362968
-0.18245725
-0.068444751
0.10829519
-0.092691377
-0.17271072
-0.059426539
-0.74466771
-0.053853821
-0.19466351
-0.73000419
-0.030886475
-0.090043761
-0.081294388
-0.48676994
0.18531939
-0.48247391
0.33239871
-0.16791621
0.063116007
-0.30169174
0.50170189
0.26294404
-0.040164437
0.41125965
-0.81493765
-0.29145306
0.024168922
-0.26636136
-0.33242837
-0.079285167
0.084124751
0.13315699
-0.022417346
-0.039953217
-0.3881802
-0.33051908
-0.56800485
0.017763194
-0.21987523
-0.51302987
-0.27350375
-0.50815809
0.047643531
-0.23894908
-0.63374662
-0.00072211283
-0.19306295
-0.42713305
-0.20200209
-0.12307344
-0.070059516
-0.025169032
0.15775971
0.10835692
0.3821348
-0.056056757
-0.71807557
-0.96330005
0.49922258
0.48711109
1.1468743
-0.52805984
-0.90513664
-0.73370779
-0.54195297
0.63824606
0.67698312
0.41386357
0.26056412
-0.21499294
0.25945804
0.53221232
0.18793729
0.56247061
-0.10586137
0.17627724
-0.62113398
-0.99370623
-0.059446659
0.24127556
-0.18660226
-1.0109783
0.090422444
0.070803322
-0.20380053
-0.19801359
-0.0038661424
0.15685871
-0.6572575
-0.45367438
-0.073756307
-0.32461369
0.09084557
0.15673697
-0.4115634
-1.2288618
0.089867219
-0.40881681
1.6488373
0.21701048
0.25158766
-0.8543992
-1.0615822
0.55248129
0.92800516
-0.59655279
0.75107563
0.0056596906
-0.61857039
-0.87939107
0.94817346
-0.2137019
0.52268374
0.71166676
1.0257697
-0.22565542
0.15267061
-0.58213788
-1.4155519
0.16207859
0.038992651
-0.072716057
-0.95245177
-0.12384264
0.55623597
0.040253285
-0.074572511
0.10259885
0.5551396
-1.4452411
-0.51107019
-0.49650744
-0.0065006912
-0.027837211
0.41743615
-0.36993596
0.64761424
0.96733981
2.5262365
1.3768137
0.14110278
0.48368239
1.2676125
2.8683641
0.0083595375
-2.0027199
0.27368307
-0.065146744
0.88247174
0.83328915
1.2115623
-2.0337451
-2.491693
-0.11733022
-0.15364413
-0.85251868
0.085728824
-0.13465524
0.19404656
0.034303363
0.28817123
-0.087076239
-0.40816188
-0.071249604
0.10439485
-0.52718616
0.26903901
-0.0012987796
-0.49832872
0.69673449
-1.2284088
-0.79182291
-1.7383891
-0.40019855
0.37450948
-0.71896017
0.42812231
0.90430152
-0.7105726
0.417586
1.0103652
-0.24572589
-0.42712677
-0.58137554
2.2611222
-0.6424436
-0.47695979
0.58044469
-0.58546424
0.31854129
0.45660263
0.043580554
0.38055101
0.19302496
-0.097819559
-0.16248111
-0.57648844
-0.11736163
-0.27594888
0.10062314
-0.066921584
0.7763707
-0.094557397
-0.16023296
0.39871719
-0.080432862
-0.47450694
-0.29885775
-0.46009943
0.16572255
0.1563019
-0.65572637
-0.6393531
-0.59770614
-0.40089685
0.082356043
-1.1958182
-0.49562413
-1.8510749
0.26893136
0.55853951
-0.49814939
0.2346562
1.2536216
0.99922812
1.3732841
0.65663415
1.0627002
-1.5478152
1.2944183
0.33035603
0.18017209
-2.3407798
-0.060802821
0.78499043
-0.03845397
0.41295379
1.487411
0.0070456751
0.06865561
-0.44926459
-0.11212294
-0.31282982
-0.21351974
-0.1336171
-0.23436718
-0.17290094
-0.065131828
0.012511321
0.341342
-0.023941949
0.09404061
-2.0351388
-0.52656698
-0.22079816
-0.31346598
0.046796881
0.14285742
-0.014906718
-1.202441
-0.31062937
0.76300287
-0.2715489
-0.011720998
0.041801311
0.35941547
-1.0965133
-0.73115069
-0.37885997
1.1093014
0.19054544
-0.30516753
-0.23017941
1.8091764
-0.38594443
-0.072224453
0.20510483
0.040921807
0.43850711
-0.29621398
-0.31679422
-0.38718331
-0.31116682
0.73700446
-0.3868393
-0.19010794
-1.5177354
-0.081964307
-0.032832313
0.21711385
-0.20862955
-0.12539731
0.18457177
0.20347093
-0.40227094
-0.28711414
-0.069346189
-0.31130993
-0.078761302
-0.38931686
0.21318178
0.62818015
0.41819933
-0.35010359
0.014390316
0.39803487
-0.48214543
0.4144063
-0.24921492
0.10159727
0.20423886
0.13872445
0.56027049
-0.18034817
-0.92701876
0.41653815
-1.1651003
-0.22209743
0.75268459
0.98650342
-0.11202437
-0.43472773
-0.99057341
-0.39191067
-0.16709761
-0.37084305
-0.64182866
-0.29806906
0.17867754
0.13683383
-0.12950745
-0.17568547
-0.0054186629
0.10226615
-0.22004227
-0.25983378
-0.24292716
-0.04803998
0.20509008
-0.050111081
-0.41974467
-0.11921024
-0.57422024
0.019387161
0.20175526
-0.14513467
-0.84843296
0.22415739
-0.067682289
0.27949286
-0.067374021
0.54604852
0.5705514
-0.08933688
-0.28949505
0.67637902
0.34276167
-0.1471266
0.44688243
0.14900517
-0.30301037
-0.11085454
-0.094784983
-0.42528576
-0.3473497
0.33642012
-0.42085961
-0.19585827
-0.18150984
-0.1254207
-0.32183909
-0.38823411
-0.12010644
-0.16120428
-0.20537098
-0.30476406
-0.24635635
-0.23994954
-0.11667461
-0.48484114
-0.081609368
-0.3052223
-0.045590233
0.026694607
-0.33869007
0.1196961
-0.26187477
0.058132786
-0.45158568
-0.14624745
0.57335997
0.31187239
0.096661329
-0.56076139
-0.20962542
-0.48761398
0.010399929
0.23797747
0.21030863
0.17380433
0.32281429
-0.17676255
-0.071624301
-0.080481946
0.032983679
-0.32771808
-0.73519468
-0.10655294
-0.19335847
-0.50841135
-0.60074621
0.23117891
-0.253032
-0.13928971
-0.15224551
0.24049145
-0.1846984
-0.22346503
-0.28880343
-0.59088057
-0.30360466
0.053998414
-0.21274161
-0.04504244
0.22801304
0.86432582
-0.33710483
0.12858126
0.37838274
-0.49251127
-0.34940749
-0.11817437
0.0089680254
0.48865959
-0.10226268
-0.17798252
-0.28844604
-0.21162507
0.32476068
0.029081818
0.31527498
-0.30728853
-0.23350924
-0.31576449
-0.23567931
-0.52134645
-0.65634197
-0.34112912
-0.18647245
-0.21189894
-0.22891217
-0.3357769
0.0048941788
-0.035030108
-0.40492228
-0.26267794
0.21690886
-0.015274534
-0.28405684
-0.095513143
-0.33498201
0.03843978
-0.075975835
-0.16668524
-0.72321492
-0.10835995
0.076480143
-0.059341922
0.18201323
0.59240872
-0.2155848
-0.043176804
0.32454652
-0.31441548
0.2066392
-0.17739367
-0.36379629
-0.10700181
-0.091650136
-0.19183096
0.29884958
0.39104143
-0.49660477
0.62622005
0.030423518
-0.054295216
-0.27338648
-0.096084222
-0.47344464
-0.19810502
-0.1280836
-0.22295007
-0.33153701
-0.23483406
-0.2241848
-0.21859506
-0.1313194
-0.24002078
-0.45693141
-0.12160128
-0.28334886
0.069562957
-0.14586493
0.22588368
-0.80903369
-0.14819881
