-0.21520193
0.017376916
-0.27186519
0.064583316
-0.40489483
-0.093958147
0.02626658
0.58189297
-0.086475067
0.075000577
0.45537221
0.4508076
0.87762159
0.64305717
0.49859712
-1.980099
-1.0764267
1.2211374
-0.58586162
-0.090162128
0.60122091
0.25063217
0.70680261
-8.4953518
-0.81490093
-0.27172679
2.1876965
21.371252
-8.2220583
4.0164723
2.3129494
0.11869019
1.1604478
0.089526109
-1.1316923
-67.617683
4.6932001
-2.4215205
-1.5437161
3.0144565
0.46597847
-0.68021536
1.4948977
-0.15389982
-0.59969366
-0.97760111
0.42467466
-0.63003802
-0.80023074
0.076964684
-0.99192208
-0.73711431
-0.016833784
-0.3359378
-0.37630886
-0.39881724
0.021736043
0.57868731
-0.25718585
-0.21459095
-0.12267085
-2.7592962
-1.6868616
0.093463928
0.61923516
0.34351751
0.51412767
0.77437347
0.74159861
0.69382155
0.53391951
0.65597898
0.76319802
1.1303269
0.25744826
0.70475847
0.58865952
0.82676619
0.27038175
0.26229653
-0.17685741
0.93071234
-0.55753696
0.41398275
-1.6438129
2.8128428
-1.695997
-0.032626275
0.020845473
1.4896816
-1.6103654
20.547157
2.0998378
0.14835195
-0.94089478
0.10185062
2.0966969
1.0397701
-0.7613256
-0.9028815
1.2431669
0.70929718
0.13757297
0.69060403
1.0813375
0.78519434
0.79661882
0.64546776
0.88481259
0.75139171
0.77531594
0.73441774
0.32745868
0.5137459
0.48599097
0.45558026
0.4511376
0.34963322
0.17368531
0.45527267
-0.054158844
0.099924646
0.50001049
0.06659054
-0.22496532
-0.75875419
-2.8737659
0.10514241
-0.49552074
1.0659204
0.0065828278
-0.0045525092
-0.32065937
0.50726956
-0.048768211
-0.014467482
0.014975198
-0.37108174
0.078090385
0.31612423
-0.050484441
-0.38749531
0.044196159
0.21767227
0.90915
-0.47539836
-0.89646453
0.4881162
0.026964325
0.039752599
0.19687651
-87.222092
-1.3891153
0.42293754
1.8164254
-0.099530354
-2.2810416
0.53213245
2.3277576
0.1027961
-0.37665442
-0.82597941
1.5248781
-73.765915
0.27433422
-0.15442149
-0.1551234
-1.9049343
0.75039238
0.55018413
-0.87940496
0.13891785
-0.37131959
0.5982157
-0.073512726
-0.23829937
0.18102485
-0.075871475
0.39922729
-0.29784867
0.31494886
-0.37946376
0.25912717
-0.19752699
-0.18971397
0.10312782
0.1628782
-0.87177086
-0.077204369
-1.490976
0.28594363
-0.64651859
-0.069775715
0.89503211
-1.7711629
-0.85531688
0.77525288
0.9696129
-4.5459085
-0.31609756
0.64970982
0.83293277
-3.0795939
-0.23018071
1.3464155
0.88838154
-5.9124055
0.44947436
1.3300343
1.8781236
-4.338223
3.4241419
-0.39154473
1.3206046
-0.98150706
1.9483781
-0.71825314
0.63797158
-0.07084471
-2.5943267
-0.37038845
-2.574743
0.36902514
0.09762872
-1.8912822
-0.83099282
-0.23890725
-2.5284028
-0.90358239
-1.1244797
-1.0527947
-1.2274927
-0.50314617
-0.65278578
-1.5716885
-0.6016385
-0.14027591
-0.27228263
-0.6923508
0.06205577
-0.51405591
-0.22201662
-0.21631788
-0.38241524
-0.59693515
-0.10455845
-0.7181195
-0.22763696
0.37874201
-0.26969028
-0.16680576
-1.0472791
-1.6402471
2.3944566
-2.4385092
-0.31879967
-0.88699526
1.6314051
-0.61651313
0.34515202
-0.43043816
0.27968389
-0.21108286
0.17855722
-0.62464434
0.03477715
0.19698775
-0.067123026
0.05268592
0.51924455
-0.16444275
-0.17686607
0.32772407
0.44140559
0.74680305
-0.43798131
0.58265531
-1.3626322
1.7963383
0.28425989
0.023883523
-1.1981114
2.3559186
-3.2621965
0.44178867
0.032944482
1.7871296
0.12085149
0.70528466
0.84766418
-0.040476326
-87.235245
0.47622824
-0.10652225
1.3974589
-0.13489185
1.189204
-0.060918357
0.57953101
0.98041284
0.052682057
0.13687229
0.14856444
0.069824748
-0.32048005
0.38570115
0.37900877
-0.55289423
0.23282082
0.2086082
1.0187442
-0.31394798
0.22646524
-0.23274951
0.25806376
0.22452119
1.7490761
0.29233658
-0.7342537
-2.2660623
0.074870899
0.11373388
-0.10019806
0.18367945
-0.28676817
0.38623422
0.27380165
0.36774749
0.15109588
0.37738028
0.021754524
0.51395845
-0.017588273
0.78961623
0.11404739
0.76357776
-0.56497967
0.68221533
1.2328542
0.3077096
-1.6076764
0.74003249
1.5033761
0.25372022
-1.7758527
0.33440155
0.86552203
1.5975811
-2.0947807
0.4102532
0.083090745
0.11515222
-1.0004385
-0.084792651
1.761358
-29.557808
-0.91369396
0.45465171
1.7476454
-42.984203
0.51757163
0.60712677
0.045974378
0.37128139
0.1630252
0.5523845
0.51846331
-0.31039318
-0.018591119
0.40902373
0.44394425
0.014854571
0.16429466
0.24072994
-0.14177631
0.0033215131
0.16613542
-0.19212168
0.45587611
0.20041062
-1.4884088
2.8058989
-0.58674288
-1.0782027
-0.38806802
-0.53953975
-0.070298031
0.07622017
-0.14387734
-0.42363167
0.039995078
-0.64100516
-0.40635112
-0.10416816
-0.010648319
-0.22571991
-0.028761035
0.17423467
-0.73092997
-0.0010921549
-2.3344388
5.8183022
-2.0661275
-1.2687411
-1.2153004
0.91241211
-1.606076
-1.3253776
-0.65395391
-3.2505577
3.1075003
-2.6352367
0.37250817
-2.7664504
5.1001196
0.12476122
-2.3777411
2.186554
-0.78016323
18.444296
-2.5312927
3.50296
-1.2126464
-2.1681819
0.7688967
-0.4978455
-0.60935891
0.38683689
0.71210343
-0.61528552
-0.088622995
0.4942202
-0.73511106
-0.36282489
0.55514508
-0.29308194
-0.15214673
0.34771341
-0.69136852
-0.23584966
0.14815629
0.053704794
0.15001449
-0.46368581
1.7614181
1.7874156
1.6723918
-0.08254689
-0.89994168
-0.20740274
-0.080172099
-1.07031
-0.69065815
-0.42720398
-0.21217835
-1.0241984
-0.88402408
-0.7223469
-0.83908528
-0.49299157
-0.24616703
-1.3354599
-0.64581895
-0.30502817
0.16103493
-2.7534287
0.084619701
0.3711234
-0.064288422
-2.6732106
1.2448581
0.31100297
1.1844418
-1.3989495
1.84935
-0.45617965
0.3892085
-1.4287012
3.563442
0.10016283
-0.0082979305
-0.18465188
0.83778745
-88.772202
0.35669971
-1.5240368
0.92063159
1.4870058
0.45170492
-0.82335496
0.009493148
0.68300843
-0.49327254
-0.071367376
-0.22599626
-0.30747476
-0.69419551
-0.25347075
-0.4680452
-0.7154358
-0.36398944
-0.68332952
-0.1485884
-1.1042788
0.13516954
-1.117619
1.3324647
-1.1069176
-1.0557337
-3.1070175
4.9789886
-0.24510321
-0.23795864
-0.16892651
0.18068539
0.041054517
-0.030157924
-0.10630795
-0.30355018
0.11031677
0.21884561
-0.30790654
-1.2026522
-0.061915018
0.11127192
-0.25000271
-1.0210556
-0.13705742
0.090552196
-0.53548807
-0.34481671
-0.13656902
0.3389197
-0.40454662
-0.62132013
-0.84868616
0.036404084
-0.19218931
-0.29432946
3.4035144
0.69448203
-0.033952355
-0.38932219
0.12673226
0.23167184
-0.42433187
-0.098327585
1.9488889
0.24441099
-0.32093865
-0.12337519
-0.068942614
0.29705182
-0.16431184
-0.4265742
-0.24060391
-0.0093127033
-0.21253017
-0.23012961
-9.7655449
-0.21722206
-0.11277343
-0.2953788
-0.93214154
-0.051154874
-0.13036714
-0.37027314
-0.19369602
0.33272305
-0.11994755
-0.37385821
-0.13525382
0.61256194
-1.1391768
0.94793296
-0.81249148
0.2776562
0.52260417
-0.12066138
0.52358967
0.18401757
0.29722816
0.44433722
0.24558994
-0.23663616
0.20147601
0.31629163
0.0031627759
-0.21979983
0.13387664
0.021660222
-0.068209223
-0.95560086
0.38419941
-0.61544806
-0.43174455
-1.0000328
0.015384252
-0.58833462
-0.8354513
-0.61906302
0.039837789
0.162321
2.2454534
0.096070752
1.4995887
1.0404962
0.11037957
-0.65824348
0.97460639
0.80586004
4.0697036
0.15913074
0.56568402
0.05347522
-1.1816827
0.46928975
0.034638107
0.10577966
-0.014704667
-0.06635233
-0.32381725
-0.16998734
-0.41285768
-0.35565701
-0.39919874
-0.15497409
-0.41539085
-0.58984625
-0.38406268
-0.45728683
-0.56386775
-0.24529278
-0.20892246
-1.3222357
-0.20186123
1.3807477
8.239625
-10.370814
-0.49312139
-0.068851851
-0.47603038
0.39731407
-0.35631442
0.077875622
-0.42062989
-0.071763828
0.076163799
0.306824
-0.47584963
-0.39926195
-0.40133041
-0.017889386
-0.34422296
-0.3435334
-0.82946295
0.054615729
-0.32660788
-0.18077596
-0.97909302
1.1521995
-1.036034
0.1820894
-8.1580315
1.1349473
0.067217812
-0.62687939
12.740984
-0.7155388
2.2781596
-0.95902246
0.098952077
-0.36649141
0.47759062
-0.29888391
2.0767777
-0.99593657
0.46951351
0.61974806
-1.0429851
-1.1859071
0.55331475
0.93744218
-6.0706477
-0.85890955
0.29178298
0.96709776
-11.027933
-0.17790183
0.3404488
0.16577554
1.7291642
-0.23686618
0.1951789
0.13918161
0.39798972
-0.13866562
0.30941257
-0.096995346
-1.8926021
-0.50378096
1.6308365
-1.927425
-0.62462801
0.16769263
0.58364499
0.092904516
0.30339864
0.31185576
-0.60558975
0.65471423
-0.58989567
-1.2831801
-0.44995496
1.5534829
-0.7479915
-0.60897088
-0.034148276
0.31922027
-0.17180079
-0.040956926
-1.0756915
0.19293532
0.36571822
-1.1214319
-0.1447158
-0.026745329
0.27610144
-0.20068771
1.2140286
-1.5485663
7.9378891
-0.2581037
0.38763049
0.20734707
0.11052788
-0.1189668
0.010880455
0.33186406
-56.209988
0.17751269
-0.29972723
-0.271557
-0.65034384
0.041693334
0.045411628
0.69414246
-94.017624
0.43827012
-0.1645674
-1.1978207
0.79236972
-0.89216256
0.54105526
0.25666595
0.64384961
-1.2011344
1.4418248
-19.960852
0.031368721
-1.481021
1.7681522
-3.1636443
-0.9423784
-1.8819208
1.39337
-1.0046308
-0.43199208
0.40834936
0.86718947
0.53275007
0.26170713
1.0388868
0.76361603
0.58856976
0.22740476
0.58319813
0.50567865
1.0545273
0.39906716
0.48902863
0.14704682
1.3868111
0.16027732
-0.20368698
0.61901718
1.5798562
0.41209152
0.90895116
0.00047134509
2.4626701
1.3711898
-0.11841937
1.1329517
2.7354302
-15.819513
-3.5673366
4.0557194
1.7494744
0.1201455
-2.0037684
0.14781576
4.3088846
-89.089912
0.035755929
0.55316603
1.1346196
0.1713316
0.64808732
0.88809711
0.53855979
0.59796864
0.67747355
0.36976567
0.32692519
0.41422135
0.016422182
0.58025092
0.11339722
0.24042167
-0.12060355
0.017060628
0.11521715
0.058977198
0.17813544
-0.082688905
0.1290033
0.53060007
1.6133432
-1.6216444
-1.3689598
-0.47408718
-0.37538409
0.0557454
0.0097492123
-0.59340435
0.21406442
0.085990027
-0.043547239
-0.037662651
0.068098627
-0.31738603
-0.39922488
0.3253957
-0.30379021
0.37394083
-0.82983726
-0.3741405
-0.99016213
0.68674821
-0.055450689
-1.2837175
3.1375499
-5.2111483
2.0262382
2.4833443
1.1949289
-3.0339401
1.3204799
0.066780202
-0.64176297
3.0945172
-2.0366986
0.10028894
-0.47665885
2.6251917
-1.6347281
-1.6531276
1.1059562
-0.6315552
0.56694132
1.4884014
2.5735083
-5.2690129
0.60750622
2.0214114
-0.36325243
-0.71343124
0.18324293
-0.77150798
-0.93948227
-0.23420398
0.12758347
-0.51723367
0.37778625
0.76990795
-0.76677108
-0.094591469
0.07780654
-0.21003753
0.31475431
0.18076731
-0.90213442
-0.87129295
-1.312874
0.035432458
-0.34064245
-0.93749434
-1.095219
-1.0300969
-0.54707426
-0.48312736
-1.1911962
-0.84040695
-0.37026197
-0.31155503
-1.5131158
-0.57114828
-0.34776163
-0.30762887
-1.2689337
-0.45629671
-0.40650412
0.76008695
-1.4779993
-0.65698254
-1.6484839
3.2558684
-1.953985
-0.50100702
-0.13809772
1.6742754
-1.5899669
-3.5676098
1.8419555
-0.8363471
0.57926816
0.10350341
0.30516896
-0.53172034
-1.4484701
1.0331358
-0.096093319
-0.80110866
-1.553172
-0.99650514
-0.45252559
-0.80338627
-1.368716
-0.9268406
-0.64111984
-0.70310187
-1.0407025
-0.82505244
-0.77515161
-0.55504501
-0.6364066
-0.85546237
-0.64893991
-0.59887677
-0.82123387
-0.49729466
-0.92100155
-0.73347956
-0.49531156
-0.97205746
-0.36971822
2.2417567
0.79975247
0.00088622229
0.028539961
0.35771388
-1.0690013
-0.11471235
0.031023748
0.08952444
-0.24759202
-0.11333684
-0.11351726
-0.040023558
-0.12797683
-0.073034599
-0.14475964
-0.13500667
0.048411619
-0.13107438
0.1425226
-0.38985673
8.4336294e-05
-2.6197588
0.25797322
-0.39507926
-0.19061707
-85.132683
0.10787641
-0.78259826
0.14835945
-0.59345555
-0.15771037
-0.35475415
0.5721454
0.099391311
0.026808362
-0.51006806
0.47306684
0.83222342
0.18848093
-0.19513129
-0.25016102
0.018531835
0.20359749
-0.13341308
-0.29932663
-0.076321885
0.0021029704
-0.15211217
-0.11458932
-0.089976884
0.020441486
0.003027177
-0.32582331
0.14565139
0.081859231
-0.00068541337
-1.3992429
0.12648173
-0.014199892
0.063607864
-0.28814337
0.11377783
0.034176592
-0.74644125
0.61881059
-0.41119155
-0.50813568
-0.020253651
-0.4950614
-1.2426714
-0.28239745
-0.31340262
-0.50290656
-0.55239987
0.18945862
-0.87898695
-0.073907457
-0.6892817
-1.0350316
-0.33164579
-1.3522968
-0.87020755
-0.76291174
-0.75390577
-1.2926656
-0.89102125
0.37650573
-0.97601545
-1.8596756
0.073200427
0.71993828
0.97274953
-3.1705499
-88.392815
0.37671018
4.3152971
-1.8800867
0.10483202
0.53160971
1.8707536
-3.5236859
0.74975234
-0.55892402
-0.95832711
-1.5292031
0.5074597
-0.2489398
-0.81257796
-1.8516411
-0.1426992
-0.27085778
-0.60411209
-2.0993097
-0.84615844
-0.43540436
-0.87312657
-2.1709204
-1.0849565
-1.0013598
-0.54328579
-1.6559305
-1.2019551
-1.2432162
-1.0257744
-1.6615813
-1.4435649
1.4044504
3.3058352
-1.5900016
0.30667832
-0.50343394
-0.56930262
-0.22745061
-2.2381628
-0.64414537
-0.98111951
-0.55516803
-1.2025027
-0.94351375
-0.99569458
-1.0068928
-1.2175566
-0.91506147
-0.930076
-1.3078756
-1.0803732
-0.97148347
-1.3169341
-1.3612741
-0.91345084
-0.71208996
-1.1853709
-1.6694621
-0.73983693
-0.58944845
-1.10162
-1.5185182
1.36299
0.69087029
-0.81348306
-1.0877272
0.12370537
-0.15481381
-0.99326247
-1.2125984
0.12187982
-0.85826665
-1.1222837
-0.75771886
-2.049376
-0.56944132
-1.1096785
-1.3228446
-1.0262185
-0.70483476
-0.94507885
-1.5862004
-1.2644303
-0.87260002
-0.98984855
-1.5121683
-1.2608662
-0.78941882
-1.0248593
-1.4958247
-1.2007205
-0.78646976
-0.84538168
-1.181389
-1.6406947
-1.0837663
2.4960275
2.5060325
0.40724304
0.11938121
1.0081186
-0.1908102
0.059163213
0.50154895
0.43285102
-0.055706512
0.57223839
-0.40270081
0.96274352
-0.10714189
0.16422464
-1.3746023
1.5565265
-0.18554915
2.4835315
-1.5343214
1.0848119
0.66923493
0.1242254
-1.9132198
1.3904819
0.98219132
2.3541939
-2.5886109
2.3313692
0.96986312
-93.733276
0.38919398
0.6160242
0.62556827
0.12110157
1.2908125
-0.340139
0.4684796
-79.621819
1.0901828
0.74462634
0.0016393944
-0.16557531
0.51862139
0.14148341
0.3497985
0.38235644
-0.27182123
-0.088799119
-0.7484796
0.1864495
-0.38072297
-0.37812051
-0.59240794
-0.011210822
-0.23737335
0.077515416
-0.49670479
-0.61193722
0.42534506
-0.51191998
-0.074233904
-0.47201592
0.26647162
-0.69027919
-2.638849
-0.29083899
0.50581223
0.44862568
-1.1176486
0.44619501
0.88585556
0.0052472302
-0.40277895
-0.074846335
-0.12035836
1.0036695
0.21122093
-1.107013
-0.067323267
0.36485583
0.69601899
3.7626488
-1.4535677
1.3647546
1.6558847
-3.9410496
-0.66252166
1.7709434
1.3397757
-87.122879
-0.83959466
1.715744
0.27252123
-7.2523689
-3.8817558
1.0172497
1.6750373
0.106521
1.4810746
-0.91302067
-0.37959561
-73.83316
1.8019412
0.46074367
-1.5424085
0.16889049
0.091038071
-0.13222174
1.1930243
0.055108376
-0.72656417
-0.010838751
1.1484493
-0.048468202
0.29955021
-0.030632256
-0.12096716
-0.11797222
0.027337158
0.037808288
0.35180545
-0.27376932
-0.20057482
0.22903121
0.3071529
-0.16042356
-0.72185218
0.41054687
-0.71509713
-0.77305555
-0.96936274
0.98889136
-1.3360751
-0.1660686
0.024678346
-2.0886204
0.34870711
-0.047895961
0.22805715
-1.3712893
-0.35293207
0.25300625
-0.30836496
-0.72268105
0.43544528
0.5983867
-1.2266619
0.057220049
1.3191917
-0.068118773
-2.1882825
1.0734526
2.2542973
-79.221039
-2.5485551
0.77456206
1.9581838
0.37597841
0.5373283
-1.1409577
1.1631135
0.11995588
0.50772256
-0.25880185
0.36773226
-88.653725
0.10509998
-0.33219925
-0.10434444
0.16921945
-0.17696552
0.23071094
-0.3273935
-0.20392762
-0.37493452
0.030583005
-0.047634725
-0.34963486
-0.13307895
-0.43172523
0.60449207
0.11797324
-0.48564669
0.20928769
0.085175797
0.29207161
0.45678326
-0.28135151
-0.67574334
0.34412181
-0.61464101
-2.0100965
1.6255206
-0.15387641
-0.13920023
0.02213187
0.24437378
0.063690305
0.11101878
0.16644612
0.16540977
0.34841692
0.10555093
0.44310132
0.21076755
0.27038965
0.35752535
0.3403756
0.24181122
0.20485044
0.039616302
0.15818118
0.075435936
0.12988424
0.19229986
0.46265909
-0.17410679
0.30370006
0.75976706
1.0600291
-0.9492898
2.1882241
1.7311819
2.1834903
-2.1364505
0.1097098
0.27434927
0.79264146
-1.2258791
3.031513
0.30684474
0.56299603
-0.51065314
0.53072137
-0.075547986
0.26043212
0.15898752
0.04714958
0.029882064
0.0015728797
0.21702036
0.073133752
0.0057828953
0.18253359
-0.019692132
0.013760448
0.085354254
0.068819523
0.21498099
0.11814532
-0.43551323
0.056655463
-0.19178881
-0.12955049
-0.70994711
-1.342607
-1.9078652
-0.08827845
-0.40267107
-0.3678439
0.34351766
-0.36546683
-0.072949611
-0.68702531
0.13258608
-0.70511532
0.30049449
-0.0935532
-0.46050918
-0.66210693
-0.0033585469
0.96741813
-0.24144703
-0.52891487
0.66033155
0.90958887
-0.34955293
0.23577349
0.64304399
1.1598572
-2.5030766
1.0233195
0.15208551
0.58336419
-2.9632432
1.0217118
-2.9067459
-0.63870245
-2.0897119
0.11897606
2.5543957
-5.8056965
-0.70709008
-0.48918647
-1.7961103
-0.52170682
-0.55880857
0.32441345
1.2799305
0.54398781
-2.0898907
0.11853086
1.9311035
1.8199261
-3.7495623
1.1235812
1.4361265
1.9644177
-1.2921683
0.62036657
0.71062475
0.65417063
0.25230181
0.34367931
0.40268484
-0.053733476
0.26876387
0.15062921
-2.3177497
0.17487459
-2.2567153
0.56730723
0.43629497
0.069020249
0.31645
-1.1619296
0.26534763
-0.46063209
0.0078472747
-0.37840304
-0.31258294
-0.1032407
-0.50743479
-0.44045708
0.14330322
-0.57475412
-0.27318072
-0.57967037
-0.45392376
-0.28060293
0.29452902
-0.64264452
-1.3994911
1.0344018
-0.41222447
-0.38263997
2.9846509
1.704922
-7.1546669
3.624181
3.8569608
1.6196102
-8.7693682
0.10348573
-0.5003621
1.5147254
-0.35501382
-92.277847
0.75997388
-0.84365034
-1.6115471
-0.37602818
-1.0619476
-1.2845982
-0.45303264
-0.99838543
-0.70974326
-1.2251755
-0.1939919
-0.71053994
-0.2955319
-0.040629514
-0.40472171
-0.53634518
0.047183879
-0.38941649
-0.14944549
-0.3957192
0.03182175
0.19032463
0.47552499
-0.75926501
-2.7033455
-0.82975638
2.1690311
-0.042010568
0.5533554
-0.84162563
-0.0053284438
-0.0170452
-0.035474025
-0.66432029
-0.1807083
0.28369081
-0.18147597
-0.76779717
-0.37904868
-0.066884577
-0.064039968
-0.2475097
-0.48474941
-1.1413325
0.31907341
-0.63506997
-0.27853301
-1.1147203
0.54298365
-0.59214967
-0.99098945
-0.65415162
-0.25606617
-0.25000277
-0.25320339
3.3969781
0.67689496
-0.444646
-0.42252222
0.1157258
0.27109531
-1.0593778
0.44340557
-84.832596
0.60721964
-0.28180623
-0.46853748
-0.69785732
0.35338014
0.06973704
-0.22658388
-0.3370676
0.29975051
-0.16730469
-0.51421177
-0.35646486
0.089592025
0.24477041
-1.0379527
-0.097441494
0.22478567
0.028521603
-0.90160704
0.015838187
-0.59310836
0.30498999
-0.19681908
0.90642977
1.5037847
-4.0894504
2.4197483
-0.63448381
-0.51787591
0.060081705
0.1340142
-0.14113183
-0.37691358
0.19074401
-0.25651091
-0.1677631
-0.35404974
0.04694467
-0.44159698
-0.12826477
-0.26568294
0.094655
-0.57540005
-0.13555755
-0.013999383
0.34822512
-0.92404813
0.1102348
0.23604217
0.55506283
-1.266771
0.14258185
-0.23164183
0.82139176
-0.84178931
0.50872481
-0.30656332
0.22583556
-0.55166614
0.11624546
-0.63557917
1.3051608
-0.90879166
-0.81427342
-0.30533299
0.42572773
-0.55333233
-0.27308428
-0.79455161
-0.30130041
-0.019606235
-0.095435418
-0.69351536
-0.35568193
0.13200836
-0.2103599
-0.58140761
-0.49951395
0.27915081
-0.2032135
-0.44990468
-0.2294475
-0.039602228
-0.092420094
-0.10848771
-0.15978853
-0.37942314
-0.082113028
0.36276367
-0.2227688
0.20341094
-0.27234605
-0.3469246
0.14646593
-0.43109509
-0.53737813
-0.30908257
-0.36547157
0.0919585
0.18733901
-0.037989881
-0.20662357
-0.3700563
0.23928562
-0.15639023
-0.10330136
-0.62373441
0.19226961
-0.55352336
-0.46431834
-0.61967289
-0.026727317
-0.80753946
-0.17446563
0.0047220481
-0.68013418
-0.1321004
-0.61853033
0.0010525987
2.1714628
1.0261601
-0.92802054
0.54385382
0.12117652
-0.89134371
0.89235413
-0.021536019
1.2029885
-3.1025398
1.6672872
1.1444328
-0.24599373
-1.1922542
0.61573166
0.59848052
-0.31623435
-1.9325092
0.44426587
1.1952887
-0.091982089
-1.4233253
-0.97827536
1.3553587
-0.10358115
-0.76698452
-1.4683378
1.0446097
-0.91555452
-0.76030749
-0.77426654
0.76134354
-1.3363677
0.71313739
-1.9242654
0.31377834
-0.048386507
0.0003372808
-0.047234256
0.16724926
1.261441
0.074561447
0.00091269164
3.6879432
-87.333572
-0.20489168
0.054061256
-0.076406538
-41.316177
-0.3298212
0.0096113691
-0.0016079885
-26.538963
-0.23802331
0.048948999
0.019392919
-19.858427
-3.3480041
-0.0081357965
0.074454926
-3.3399715
-0.086959898
0.022004424
0.19292292
-30.000414
-0.20832571
0.04205329
0.30198425
0.10917369
-0.030692225
0.017212331
0.17981623
2.2549517
0.030830635
0.030822275
-0.076187909
-0.16863483
-0.045068141
0.0044606151
0.23276857
-0.11594334
-0.062892914
-0.14344852
1.8678399
-0.040465396
0.053499661
-0.11459601
0.038328044
-0.033109825
0.0023970618
-0.10013331
0.0053523891
-0.037135884
0.032028183
-0.071842022
-0.036713313
0.032584157
-0.024009913
-0.08751104
-0.76714998
-0.7681396
-0.0505853
-0.042807642
0.95655894
-0.4529593
-0.12031987
0.18445839
-0.13226505
-0.36507306
-0.34018952
0.59525484
-0.14289562
-0.34530744
-0.45077202
0.61050373
-0.083836839
0.0072748419
-0.31477496
0.45181093
-0.40622675
0.083717927
-0.038750146
0.10785779
-0.14526597
0.10636871
0.26384926
-0.0075417464
-0.030314645
-85.691422
-0.07613878
-0.034142777
1.3343194
0.10836753
-0.096203096
0.23365609
-0.1073212
-76.826958
-0.0088680005
0.10301717
-0.07335934
-8.3024244
-0.33324456
0.078929029
0.23426257
1.4458717
-0.22923236
0.002557494
0.35936102
0.30378479
0.1182235
0.023048192
0.076673754
-0.080654949
0.092164353
0.091289401
0.0093610687
-0.089234836
0.091756389
0.71676463
-0.090191603
-2.2464912
0.1091974
0.06872502
-0.41616565
-0.73449844
0.1869247
-0.0083780158
0.49123558
-0.20246775
0.29737389
0.74280488
0.25489908
-0.052050982
0.48983571
0.47549286
0.32734683
0.24597183
0.52152014
0.15199316
0.83187294
0.66543812
0.4212313
0.80359483
0.24330434
-25.619955
-0.72686595
1.2627032
-1.1948857
-79.242828
-3.2071035
1.3724933
0.4422614
-54.087742
-4.329782
1.1505696
2.5975327
0.10682115
-5.2736549
2.183552
1.859797
-35.484932
-1.235395
0.45969424
-1.1278805
0.03435092
0.7761246
0.30457002
-0.54620814
-88.794914
1.4281586
-0.10784127
0.82528824
1.0859942
0.69182605
0.26663765
0.94049335
0.21071988
-0.40127441
0.17988613
0.017623262
-0.20968303
0.1169619
0.17833826
-0.27348271
-0.19877799
-0.12078713
-2.5798512
-1.973392
0.17196016
0.27032816
0.4819189
0.41235059
-0.268098
-0.077236317
-0.24827556
-0.57105196
0.33465722
-0.33403599
-0.30022797
0.65318161
-0.077423476
0.8195383
1.1556959
0.50736713
-0.4508782
-0.41316813
-0.35493863
-0.75600135
-0.67905033
-0.79850394
2.0962842
-0.569552
-2.0262451
-0.56789935
1.4010957
-1.1241112
1.3028423
3.9982259
0.74374175
-2.1452441
0.1117189
-4.7993541
-3.339493
4.7506533
0.78104335
-0.6629051
-2.0244131
0.41046265
-2.1115239
-0.67564666
-1.0078253
0.36132666
-0.87931174
-0.00051815994
-0.64166391
-0.61244953
0.13451473
-0.14409834
0.37092391
-0.80853611
-0.12685211
0.20708543
0.52004719
0.46762165
0.26041898
-0.25272334
-0.5038684
-0.099072792
-0.48787799
1.2677853
-0.92281121
-0.52600306
-0.7015456
-0.47202381
-1.2862632
-0.84029281
-0.71371138
-0.62043405
-1.0367908
-0.15384719
-0.41513908
-1.1413131
-0.71553934
0.027719997
0.015686577
-1.4763483
0.28600052
0.31161484
-1.0210794
-1.1094723
0.89875686
0.88259977
-1.3780063
0.49794844
1.5757378
-1.376457
-93.974998
0.70986551
-0.36658874
-0.13708849
-62.898262
-0.39034197
-1.215519
0.33525327
0.12282081
-0.82602233
-1.2098391
2.367404
1.4758086
-0.4607124
-0.77694488
1.0553064
-0.60556537
0.83900303
0.40901613
-1.8947489
0.56814146
0.43566623
0.45122376
-1.4282565
0.31339484
-0.39043164
0.61545032
-0.21423317
-0.053756684
0.31805378
-0.27133173
0.14853442
0.073658586
-0.40887511
-0.35135496
0.82477492
0.45455393
-0.28040779
-0.73942536
0.36387902
-0.14127278
-0.1494028
-0.69847441
0.25981992
-0.52355176
-0.19572733
-0.95373476
-0.070288286
0.041022833
-0.65427673
0.15129283
0.348517
-0.47681034
-0.919523
0.25613138
0.49764577
-1.6413635
0.92588627
0.89023608
-1.5324105
-0.12720637
1.1675937
-0.19670744
-0.58496571
-0.095528625
-0.8141287
-1.633257
3.0822921
2.5547893
1.3705651
-12.516119
2.6834459
0.097622313
0.21119149
1.3648537
-1.0585179
-79.725693
-0.33558622
1.4370388
-1.9203948
0.35408086
-0.92370248
0.099988692
0.28767195
0.22811261
-0.5824492
-0.15076762
-0.14417495
-0.23374641
0.34190997
-0.26969501
-0.28690025
-0.30694938
-1.2358763
-0.18708646
1.2182486
-0.24188969
-0.12749052
-0.64579928
-0.00763048
0.10375025
-0.23495573
0.57033366
-1.9593607
-0.43707511
0.14606571
0.30109411
0.080274075
0.052323338
0.1972715
0.11942601
0.24813862
0.16285983
0.088849463
0.03009895
0.51213801
-0.083412401
-0.011131683
0.074144751
0.5078727
0.045498457
0.4753674
-0.11497919
0.65442163
0.23577367
0.33184934
0.062604733
0.011017077
-0.02700044
-0.63568145
-0.23977804
0.39537042
0.09360113
-0.63002473
-1.6973048
0.69683433
0.12298423
-1.3555795
-0.86542141
0.72198027
0.845707
-0.90480357
-0.087157831
-0.29612938
-0.85936189
-0.57679534
-0.24674736
0.089061245
-0.28943887
-0.19149621
-0.36731029
0.20512474
-0.28340986
-0.11872161
-0.24075882
0.16994254
-0.17674138
-0.40425664
-0.47108999
-0.061961316
-0.18676038
0.087987132
0.0099579031
-0.73574567
-0.14302371
-0.67097694
5.5027237
-6.0013747
-0.6094448
-0.3547473
0.19518824
0.28812256
-0.55755812
-0.31014195
-0.54316032
0.13595936
-0.14645015
-0.30606082
-0.56620532
0.42968976
-0.27600431
0.67350775
-0.085863389
0.8960501
0.25956035
1.7114204
-1.6794009
1.9368322
-0.0023440889
3.8473079
-3.7079875
2.2867107
1.5315683
2.240783
0.37493834
-0.99229723
-16.952677
-0.43796825
1.579684
-2.5048013
0.12580027
-1.6593038
-0.16922173
-1.909622
6.5575356
-1.1598772
0.0053677047
-0.92196006
-3.2170289
-0.43299359
-0.18070398
-0.82908911
-1.0649855
0.38598213
-0.42199719
-0.22554407
0.22255446
0.65223855
-0.1446228
-0.019387731
0.41456366
0.40637869
0.15874419
0.65090793
0.13337184
0.39728695
0.3983376
-0.38184929
0.092818931
0.21945007
-1.1076832
-0.31156278
-0.12245162
0.047188498
-0.11484113
0.040698353
0.1760858
0.031988755
0.29832578
-0.15466329
0.12514201
0.4049162
0.22706109
0.34117442
0.4293727
0.45207438
-0.10811739
0.22233486
0.82044834
0.18122423
0.4272469
0.16097793
0.84206754
0.029745424
0.87320423
0.029017128
0.34276408
-0.15071216
-0.038139082
-0.23390572
-12.986695
7.3152695
-4.3026557
-1.5120876
0.10204064
4.8387337
-0.28661692
-0.87438166
0.30585113
6.0553484
-1.3711619
-1.4669411
0.60873026
3.7130253
-2.0772278
-1.5772196
1.8386947
1.8006202
-2.4396777
-0.19881769
10.13669
-0.43832082
-0.41367525
1.294446
8.5946112
-0.54154193
-0.067610189
0.35401893
-0.99625152
-0.3191857
0.16172045
0.44906083
1.0658029
-0.13868399
1.5506461
2.6588857
0.074855216
0.24414602
0.52547801
0.24396685
0.33555922
0.087330729
-0.024179921
0.4514631
0.16069847
-0.099048726
0.33621669
0.23261504
0.36660632
0.62728095
0.44232833
-0.57946116
1.0124409
-0.3626225
1.3788877
0.38211617
0.38577133
0.11559739
1.1290901
1.4260204
0.88006395
-1.7368852
1.444451
1.9615611
-77.281876
-3.7032862
1.0555665
2.333457
0.11691182
-2.1694713
1.0906157
2.3621883
-81.218071
-0.75346065
1.0152769
1.4275179
0.25404507
0.64639676
1.0011853
-0.0091014523
-0.26485217
0.19032492
0.40007511
-0.024543919
-0.13585258
-0.29232681
-0.13677761
0.47601238
-0.15024835
-0.29244015
-0.38811186
0.21030559
0.045184467
0.17447728
-0.18183942
-0.10013265
0.19147724
-0.6455633
-1.6491935
-0.65422726
0.0076345652
-0.078032531
-1.1173148
-0.13367331
-0.67978412
-0.31021723
-0.015246102
-0.56340605
-0.17728956
0.012940664
0.13856268
0.1643208
0.12359715
0.25552952
0.085166723
-0.25251564
0.48733455
0.69088572
-0.12667392
-0.52944469
0.67478061
0.15450278
0.33258858
0.060111336
0.54752994
0.20090213
0.46366176
0.058092352
1.9954859
0.27728879
-0.60028255
-0.57593864
0.12470329
-0.31689134
0.7135523
-1.1550666
0.16114797
-3.2293043
2.9336843
1.0083164
2.4496031
-2.4116368
2.1183209
1.4057424
2.4475393
0.15972751
1.7704729
0.82146239
0.41409862
1.8042765
1.767293
1.039325
-0.44272083
1.5513351
1.3999784
1.1479126
0.70783514
0.94270062
1.0232457
0.24660102
-0.11579684
0.23028864
0.78978485
-4.1398768
-0.27849704
0.42620781
-0.39994207
-2.6507006
1.3634328
0.3680211
0.075533338
-0.13064449
0.66578776
0.25879446
0.20753638
-0.081877902
0.17426255
0.13344939
0.19139278
0.1398983
-0.26226163
0.11610163
0.12683329
0.23527752
-0.5982725
0.072981097
0.026357003
0.67952877
0.1629772
0.14129564
-0.057641286
0.30538991
-89.370697
0.1600183
0.45530391
0.090986036
0.099743016
0.14124732
1.055075
-0.25275716
-91.26062
0.17081548
0.24975252
0.028417768
-0.40241057
0.071844682
0.087427065
0.32163644
0.12160655
0.2314959
0.087133214
0.067717955
0.0045522344
0.63350993
0.05157223
-3.5135334
0.11311245
0.73405534
0.0066167936
-6.7699986
0.2111346
0.74282241
0.11266298
1.4975994
0.80572909
0.68597317
0.085463047
-0.33840242
-1.3278588
-0.18355548
-0.48420069
-0.24745776
-0.82928771
-0.29218516
-0.63180429
-0.58305919
-0.99143976
-0.57954133
-0.80065644
-0.76168299
-1.9735521
-0.6205107
-0.84478098
-0.69888335
-1.6015434
-0.51701635
-1.001171
-0.74788857
-82.949135
-0.44550666
-0.93419898
-0.82831848
-32.064026
-0.37273657
-0.85084456
-1.1786461
-0.073281437
1.259606
-0.69156373
-0.75155258
0.12032001
-0.58374512
-0.43409219
-1.30985
0.25377581
-0.68194306
-1.2025195
-1.0981147
-0.92484802
-0.60680801
-1.3980845
-0.9703477
-0.78445196
-0.7752347
-1.2204223
-0.81079966
-0.9526071
-0.72329891
-1.1933192
-0.48801187
-0.96842849
-0.71142441
-1.0157292
-0.53389639
-0.95805615
-0.50857198
-0.97206402
-0.09277419
-1.152764
-1.100021
2.2861199
1.7860512
0.04248555
-0.15209864
-1.0602804
0.73603863
-1.1419742
-0.61816943
-0.52727044
0.11746278
-0.78260982
-1.2591964
-0.091059379
-0.1474079
-0.39577472
-1.543478
-0.23769665
-0.01054936
-0.34535533
-1.562201
0.20831823
-0.36301613
0.14290407
-2.0711422
1.041883
-0.30685103
0.11374999
-1.6637944
1.2973574
-0.63295048
2.0936892
-0.58117551
0.15150857
-0.62136316
0.10546075
-0.59417099
1.5719749
-1.3713307
2.3511674
0.0035033782
0.73895806
-1.7754982
-1.1850345
-1.1348225
-0.55893534
0.29739228
-0.48346215
-0.73136318
-0.62952447
0.38295355
-0.44164002
-0.45417544
-0.54778731
0.18489674
-0.45948526
-0.35504186
-0.30602244
-0.091357522
-0.35410291
0.039176248
-0.23844174
-0.76232046
0.094946727
-0.1408271
0.5040468
-0.05560863
0.031611264
0.50872648
0.035070904
-0.67364329
0.9248544
0.28148901
0.13987383
-0.78201783
0.52746803
0.36798993
0.24842031
-0.70367301
-1.0311389
1.3439883
0.14817369
0.07173337
-94.464241
0.054717559
0.15524846
0.13469161
-71.354149
-0.047170557
0.21129894
0.18241893
-0.22980884
0.11771426
-0.016705247
0.17130911
-29.724714
0.11729716
0.18457441
-0.086102508
0.11623637
0.10474338
0.21428944
-1.2300812
-91.159439
0.12686737
0.020547893
0.1954401
-0.13039745
0.066595972
0.091044284
2.2731378
0.11286763
0.18025552
0.069550514
2.4830534
0.33238369
0.40285447
0.082605161
1.7994945
0.17466477
0.70314622
0.10606475
-7.1678114
0.13499288
0.24676104
0.14241156
-0.32755515
0.44466141
0.64698458
0.12947872
-5.736392
-1.2500551
-0.39627752
0.41678888
-0.28223267
-0.20686871
-0.10795069
0.16601214
0.091389924
-0.11737683
-0.17965795
0.29323095
0.063742846
-0.042049952
-0.18648708
0.26665622
0.13000089
-0.031235997
-0.03171752
0.3347154
-0.071782455
0.047169298
-0.17894359
0.22669007
-0.35771659
0.12625545
0.0609724
0.026356082
-0.26301783
0.32724977
0.54088593
-0.6225723
1.0252714
0.10006555
-0.25014392
-0.20349362
0.45743152
1.3491266
0.091414869
-0.47084317
0.092140928
-0.35016975
-0.18146101
-0.50254172
0.15553679
-0.48260596
-0.2467103
-0.35862076
0.17393596
-0.17636427
-0.25698614
-0.29259408
0.36249918
-0.10617121
0.050479658
-0.33771384
-0.064527951
0.006646995
0.13866247
-0.55295074
-0.33592436
-0.040671103
-0.57624686
-1.1735982
0.35306981
-0.18698281
-0.63444656
-0.82866496
-0.94150054
-0.37329328
-0.61532182
-0.35631856
-0.36937338
-0.41696912
-0.19574974
-0.19236207
-0.2017443
-0.20383331
0.087682247
0.23108029
0.18215993
0.010713737
0.29001406
0.16738115
0.37030107
0.013430466
0.34772998
-0.49400192
0.21094394
0.42462134
0.7473188
-1.4353588
1.1107399
1.934584
2.1294401
-2.8793595
2.1172416
0.12244397
1.1829298
-3.8401663
1.703191
4.0706477
-0.061173115
0.39079249
0.12335611
-0.4836624
-0.004816683
-0.014943268
0.16374941
-0.46871328
0.11162018
-0.25984204
0.14346524
-0.1863175
-0.1681297
-0.2462083
-0.37057808
-0.14475116
-0.63086247
-0.63384163
-0.59066725
-0.2620137
-0.38756809
-0.1080061
-0.52766991
-0.54430926
-1.2451249
-0.933043
-0.30239111
-0.079156049
-0.22380818
-0.068561003
-0.15427066
-0.46592629
-0.020065239
-0.15701139
0.11624978
-0.27123535
0.1590057
-0.061319645
-0.020694505
0.23534793
-0.3047592
0.0078777093
0.13525268
0.075524129
-0.61928618
0.53501916
-0.88116312
-0.39253715
0.83078462
-0.55584896
-0.28686321
-0.21572684
-0.75070691
-1.8176525
1.9029299
1.7776579
6.9264369
1.3742638
-9.0335302
0.11329456
0.32717076
-2.0663636
-1.370399
1.550465
-2.3257899
0.086893849
1.04322
-1.9262706
0.62271947
0.16045177
-0.57568312
0.048319552
0.39228073
0.010441217
-0.15247747
-0.26240265
-0.4400903
-0.81270725
-0.23020306
-0.4462252
-0.39619574
-0.10270692
-0.61636192
0.13408931
-0.44718695
-0.36842626
0.10990635
-0.13764755
0.40216717
-1.5480088
-0.98008585
0.12616335
0.36518288
-0.058203477
0.086237475
-0.51750529
0.37062901
-0.16172671
0.38301688
0.1432313
0.57286447
-3.6722045
0.4838714
0.85037947
0.22345632
-2.2068982
0.50345105
0.38386136
-0.31204414
-2.1361949
1.858961
0.37494478
-5.6708755
-2.7018414
4.5183539
0.41862288
-2.2904119
-1.9557855
1.4755175
3.9565256
1.1794373
-0.053190477
-3.5568461
0.098863192
-0.97964287
-1.9014313
-0.10127813
-1.7531908
-0.63602877
0.059280366
0.53028071
-0.053486213
0.38968924
0.16779099
-0.45247811
1.0672079
-0.40796819
0.47698849
0.7556408
-0.35891429
-0.30856696
-0.52987581
0.15960471
-0.55444264
-0.32304785
-0.55993408
-0.58400261
-0.47200233
-0.24780467
-0.86084408
-0.54709619
-0.60162956
1.2083852
-2.5070355
-0.96934247
-0.18544799
-0.33785883
-1.0725664
-0.31459388
-0.4312396
-0.6582306
-0.25070474
-0.80390537
-0.64497715
-0.592861
-0.14806694
-0.70684206
-0.80983591
0.19334148
-0.30324072
-0.088864863
-0.27860311
0.14651582
-0.67882025
-0.19153781
0.10555296
-0.66394025
-0.5774104
-1.0075476
-0.94540167
-1.5062441
-0.83665466
-0.69790232
0.76074123
-0.71046782
-1.9018238
-0.88113618
0.12654933
-1.4687551
-0.82578456
-0.99773276
5.0598917
0.39115387
3.7480121
-12.160174
0.39701924
1.5235101
2.9266429
-14.844867
0.25434515
1.4056669
1.5801103
-7.6235685
0.41999218
-0.16054463
-0.30389237
-1.7873623
0.48978302
-0.98633015
-0.041800529
0.34022358
-0.58339548
0.63739693
-0.10994611
-1.665862
-1.4548463
-1.786728
0.77840531
-1.854857
-0.068815231
-0.25303021
0.23127572
-0.45111006
-0.090906754
-0.25180084
-0.33300394
-0.20119797
-0.13339159
-0.48178285
-0.1329198
-0.37587532
-0.15840001
-0.61885738
0.1379198
-0.52023554
-0.1780882
-0.78401852
0.16535987
-0.54353362
-0.13624462
-1.2407418
0.4907935
0.15700869
-0.21515802
-0.87601393
-0.17422451
0.43140742
-1.3335215
-0.40225399
-1.321864
0.40510628
0.11444311
0.068148635
-1.1784929
0.97767884
2.9949198
0.39058855
-0.80509424
0.27139649
-0.44460565
0.38111943
0.039816733
-0.19198835
-0.4205735
-0.014160416
-0.014112136
-0.12130478
-0.11188939
-0.08976227
-0.11596034
0.064032309
-0.079354338
0.10059043
-0.16280039
-0.10057811
-0.031728711
0.227892
-0.087947905
-0.23329081
0.031064305
-0.36783636
0.99195844
-0.22031334
-0.2018958
-0.8525697
-1.1460402
-1.1335526
-1.2237152
-0.44583187
-0.49914673
0.30417255
-0.41697085
0.32218471
-0.19024755
0.036135133
0.51593417
-0.20043573
0.7128194
0.35866955
0.084323749
0.66902846
0.52021813
0.27725434
0.35946631
0.18674314
1.4183433
0.074304208
2.4195049
0.18047111
0.51897454
0.28115502
1.8656921
11.718252
-3.9003162
-4.1800489
0.10447378
2.4368188
0.04362696
-0.94344318
4.9589663
0.16744602
1.1899862
-0.5123378
-2.1983991
0.10161337
0.94137764
-0.44184351
-0.14664228
-0.21079732
-0.21106391
-0.047281623
-0.18585955
0.38215062
-0.027920684
0.67806631
0.10827301
0.19685405
0.049921278
-0.076386869
0.14650714
-0.54480606
-0.4811306
-0.39332733
0.34464267
2.0070293
1.2134148
0.69555455
-0.15850829
-0.013916217
0.76440716
-0.43178809
-0.043163899
0.075999521
0.16298284
-0.52577305
0.057716627
0.15021184
-0.079430267
-1.1305945
0.059080932
0.086282134
-0.27544701
-0.30740598
1.0022613
0.13297056
-0.46965817
-0.024990087
0.044108298
0.62817723
-0.64558774
-0.10207804
0.27931148
0.48348278
-0.13787715
-0.082049139
-73.491249
0.41530803
0.32145128
-0.22991382
0.12535127
0.24608222
0.18750791
-0.34565878
1.1913482
0.21948652
0.086883113
-0.32075322
-0.0032036286
0.17866045
0.058051031
-0.234356
-0.097331114
0.21231432
-0.14957374
-0.10331682
-0.12354697
0.10458816
-0.030573785
-0.16267686
0.38520065
-0.056849349
0.020785382
-0.15987626
0.3953051
0.11397424
0.097023234
-0.21044172
-0.11127392
0.21003701
0.37305737
-5.1218185
-0.96112347
1.026783
0.81830472
0.78392065
0.25699368
0.55621082
0.29538015
0.28792158
0.43603724
0.41687918
0.28188381
0.55963677
0.20795822
0.75145334
0.80890435
-0.066024952
0.31082079
0.050542582
0.090905473
-0.61014086
-0.10266551
-0.43997958
0.71712303
-1.2027254
-0.31995839
0.9478637
-0.39979309
-2.0089114
2.8156059
4.0804296
-13.234245
2.6229813
0.12583131
0.13109131
2.5191221
-1.7214421
2.5990775
0.61807179
0.08696343
-0.97888887
-0.31110364
-0.15345465
0.039556962
0.1240803
0.13091856
0.27638048
0.13717654
-0.45887235
0.325854
0.023559149
-0.40408278
0.1406389
-0.29055163
-0.05113424
-0.27104992
-0.14071453
0.023007402
0.32771558
0.41703582
0.041990183
-0.28283983
-1.6219728
-0.29871154
-2.6332128
0.25913599
-0.85140032
-0.86002535
0.35459989
-0.0052081211
0.1566965
-0.51753896
0.14603068
-0.81397331
0.36826253
-1.0984908
-0.44342038
-1.0430884
-2.4116068
0.64474982
0.22651371
-1.3582053
-0.93994713
-0.15910584
0.81893516
-1.749724
2.1953254
2.2549369
-11.592083
2.8069549
1.1911286
0.21275938
-2.0845046
3.600251
-0.92741197
-2.7940814
1.3819405
0.1060802
-0.19482549
-1.0846136
1.7906622
3.1732004
0.0068315575
-0.74286062
0.06820786
-0.51240009
-0.30607247
-0.24960327
0.045280043
2.7377462
0.1533864
0.35201153
-0.22266108
-3.0355504
-0.15254016
0.21502148
-0.059979424
-0.6137144
-0.21324743
-0.33642176
-0.62309456
-0.44967189
-0.096777782
-0.20884019
-0.4880186
-0.82608724
-0.55575001
0.73521256
-1.4268663
-0.22599056
0.38307092
-0.75541151
0.29359189
-1.1908711
0.43602699
-0.76963955
0.20359322
-0.64586747
0.55968815
-0.85122538
0.45846513
-0.31767082
0.42482835
-0.78036696
0.91473532
0.19519119
0.31686795
-1.7108774
0.22285429
-0.025043046
-0.13417931
-2.3640261
0.1052668
-1.0237482
0.18594204
-2.5658274
-1.3212794
3.3954375
2.4847982
-1.1325434
-4.263886
0.11467809
0.27245831
-0.38101062
-2.6403034
0.13389359
0.06632556
-1.6620648
-0.14717962
-0.46272781
-0.89165103
-0.10419104
0.26412413
-0.38365802
0.17738146
0.1770608
0.2172939
-0.13577609
0.011062959
-0.24838799
0.60846817
0.17577922
0.023742238
0.07985951
0.018950032
0.084309153
0.047923997
0.27637106
-0.45224786
-0.21668747
-0.44365311
2.1142764
-1.8079234
0.56314099
-0.21223909
-1.0716947
-0.60893118
0.74604309
-0.59300661
-0.58828133
-0.73032933
0.64473498
-0.50291169
-0.59497607
-0.29967788
-0.00040378131
-0.38089466
-0.60653126
-0.43613964
-0.38532177
-0.57444012
0.14954902
-0.74760103
-0.766298
-0.21070777
-0.74204004
0.097926572
-0.5408951
0.0025102245
-1.0519661
0.022135789
-0.55568171
-0.79588121
0.4363769
-0.75977898
0.12059867
-0.59734839
0.35220769
-0.36972448
-1.4470887
-1.0013969
0.56514513
1.5987117
-38.32394
-1.2244104
-0.13630055
2.0401447
-1.3379102
-2.0770586
0.015740892
1.9858615
-87.310951
-2.3211195
0.5963335
2.1442168
-73.844513
-1.9242955
1.0636408
1.3153291
1.2114781
-1.7910186
1.6201183
-0.44002807
-0.69040054
-0.58015287
0.98823601
-1.1222972
0.25799081
0.098949231
-1.0991631
-0.40265501
0.35576746
-0.72787535
-0.079351455
-0.49059829
-0.85909492
-1.0077785
-0.35263616
-0.13921554
-1.12239
-0.34959206
-0.60069203
0.06572596
-1.1376952
0.16347687
0.69388437
-0.032398749
-0.30865952
0.98104876
0.37176806
-0.37627414
0.4367961
1.1002843
0.50761586
0.91223133
3.8619692
-2.7807307
0.82757235
1.452314
0.12685268
-1.5030233
0.85093492
1.4851042
1.3639069
0.059856392
-0.041873291
1.1774107
0.87406325
-0.85515118
-1.2104501
1.819775
1.3215311
-0.41618487
-1.7124873
1.2325863
-0.41380399
-0.24092717
-0.45963123
0.2148363
-0.74263668
-0.58573455
0.13862976
-0.66745842
-0.42265978
0.49400708
0.39929157
-1.1919881
0.64662671
-0.58832449
-2.686815
2.148689
-0.24177441
-1.9108475
1.2425551
-0.84494793
0.17454858
1.5984186
-1.5685531
-1.7566519
-0.5337925
-1.532678
-0.27699268
-1.1629714
0.86599165
-0.50142968
2.1072798
-1.0716686
-0.42763981
-0.73557669
-3.9033711
-0.65764183
-0.56709623
-0.63829041
-1.2897822
0.91254067
1.2712127
-1.0713234
1.3150256
0.74367768
-0.052142479
0.43769163
-3.1368749
1.4031078
-0.36245176
-1.3615692
1.0416821
0.61174971
2.574739
-0.99971557
-0.86646813
1.0776175
-3.1541667
0.46841678
0.33116364
-0.94799113
0.18174037
2.1429768
1.0447563
1.5680262
1.6876001
2.8885322
-0.86636144
2.6615899
-1.7891324
0.49373206
-0.38505656
-0.19745125
1.8111687
1.3484632
-1.7779335
-1.214403
2.5683184
1.359466
1.3991231
-0.97476768
-0.13624775
0.60200381
0.66336024
-0.69925553
0.82205135
-1.624079
-0.079021707
-0.83339745
0.67242551
-2.1330762
1.020454
0.35336056
-2.3703039
-0.82783341
-0.49124783
-0.10514787
0.41173822
0.54003155
-2.4454911
-0.47487792
-0.66795695
3.3090224
-0.95847708
-2.3575249
-5.9423265
4.7571888
0.9430508
-2.8430262
0.68709511
1.1339759
-1.019502
-1.6366982
-0.84301347
-0.87887824
-1.0840031
-5.6896782
-0.25302246
0.32255012
-2.0682106
0.8192293
2.2093768
-1.047087
-2.2967176
-1.0789208
-0.41330495
1.1253357
-1.6908835
1.1198573
-0.58229989
0.90522951
1.8920262
-1.670969
0.9393099
0.86047179
0.6178804
0.6969915
-4.6685987
0.75585085
-0.77863252
0.26371181
-1.0460906
-0.78173953
-0.04821134
-0.57057106
-0.22982568
-3.0417278
0.76925856
0.74026436
-5.7425427
0.17466064
-1.020326
1.3691378
1.8001928
0.020834384
-0.026000302
0.057273682
-1.7458067
-1.2431284
0.76799905
1.5069302
-0.29092506
-0.71682626
3.1511972
0.62465501
-1.1875528
-0.90743375
-0.26914406
1.6885955
-0.51732999
-0.937365
-0.18591951
-1.5486226
-1.2913464
1.6305566
1.4898511
-2.893111
0.022977352
0.23900484
1.9446244
-0.46716341
-0.20534565
0.79372776
-6.9865084
-8.1761875
-1.0299686
0.48257405
1.1175753
-0.68231213
6.608532
2.1749179
0.75264168
-2.1615779
-1.1531699
-1.5029491
-4.3285317
-3.9970508
4.7527056
0.084130749
3.3371656
5.9326692
-4.9724121
-1.7532599
-0.98329413
-3.6387203
-4.4690633
-1.333004
0.86475277
0.75160277
-0.11231177
-0.10868844
-0.018189769
-8.6905193
-0.24066398
-0.26351011
-1.1030527
0.12093952
-3.1931088
6.843307
-4.9974394
-5.9171901
0.34030008
4.7673516
1.2015743
0.20198281
-0.45282066
-1.5137759
-3.2056484
-2.6150208
0.090560749
-0.096404172
4.7149267
0.38664481
-6.4579825
-0.94113553
0.15669593
-1.8586305
-0.65567511
-3.1907654
-2.351928
-1.5896467
281506
